0,1,2,3,4,5,6,7,8,9,10,11,12,13,14,15,16,17,18,19,20,21,22,23,24,25,26,27,28,29,30,31,32,33,34,35,36,37,38,39,40,41,42,43,44,45,46,47,48,49,50,51,52,53,54,55,56,57,58,59,60,61,62,63,64,65,66,67,68,69,70,71,72,73,74,75,76,77,78,79,80,81,82,83,84,85,86,87,88,89,90,91,92,93,94,95,96,97,98,99,100,101,102,103,104,105,106,107,108,109,110,111,112,113,114,115,116,117,118,119,120,121,122,123,124,125,126,127,128,129,130,131,132,133,134,135,136,137,138,139,140,141,142,143,144,145,146,147,148,149,150,151,152,153,154,155,156,157,158,159,160,161,162,163,164,165,166,167,168,169,170,171,172,173,174,175,176,177,178,179,180,181,182,183,184,185,186,187,188,189,190,191,192,193,194,195,196,197,198,199,200,201,202,203,204,205,206,207,208,209,210,211,212,213,214,215,216,217,218,219,220,221,222,223,224,225,226,227,228,229,230,231,232,233,234,235,236,237,238,239,240,241,242,243,244,245,246,247,248,249,250,251,252,253,254,255,256,257,258,259,260,261,262,263,264,265,266,267,268,269,270,271,272,273,274,275,276,277,278,279,280,281,282,283,284,285,286,287,288,289,290,291,292,293,294,295,296,297,298,299,300,301,302,303,304,305,306,307,308,309,310,311,312,313,314,315,316,317,318,319,320,321,322,323,324,325,326,327,328,329,330,331,332,333,334,335,336,337,338,339,340,341,342,343,344,345,346,347,348,349,350,351,352,353,354,355,356,357,358,359,360,361,362,363,364,365,366,367,368,369,370,371,372,373,374,375,376,377,378,379,380,381,382,383,384,385,386,387,388,389,390,391,392,393,394,395,396,397,398,399,400,401,402,403,404,405,406,407,408,409,410,411,412,413,414,415,416,417,418,419,420,421,422,423,424,425,426,427,428,429,430,431,432,433,434,435,436,437,438,439,440,441,442,443,444,445,446,447,448,449,450,451,452,453,454,455,456,457,458,459,460,461,462,463,464,465,466,467,468,469,470,471,472,473,474,475,476,477,478,479,480,481,482,483,484,485,486,487,488,489,490,491,492,493,494,495,496,497,498,499,500,501,502,503,504,505,506,507,508,509,510,511,512,513,514,515,516,517,518,519,520,521,522,523,524,525,526,527,528,529,530,531,532,533,534,535,536,537,538,539,540,541,542,543,544,545,546,547,548,549,550,551,552,553,554,555,556,557,558,559,560,561,562,563,564,565,566,567,568,569,570,571,572,573,574,575,576,577,578,579,580,581,582,583,584,585,586,587,588,589,590,591,592,593,594,595,596,597,598,599,600,601,602,603,604,605,606,607,608,609,610,611,612,613,614,615,616,617,618,619,620,621,622,623,624,625,626,627,628,629,630,631,632,633,634,635,636,637,638,639,640,641,642,643,644,645,646,647,648,649,650,651,652,653,654,655,656,657,658,659,660,661,662,663,664,665,666,667,668,669,670,671,672,673,674,675,676,677,678,679,680,681,682,683,684,685,686,687,688,689,690,691,692,693,694,695,696,697,698,699,700,701,702,703,704,705,706,707,708,709,710,711,712,713,714,715,716,717,718,719,720,721,722,723,724,725,726,727,728,729,730,731,732,733,734,735,736,737,738,739,740,741,742,743,744,745,746,747,748,749,750,751,752,753,754,755,756,757,758,759,760,761,762,763,764,765,766,767,768,769,770,771,772,773,774,775,776,777,778,779,780,781,782,783,784,785,786,787,788,789,790,791,792,793,794,795,796,797,798,799,800,801,802,803,804,805,806,807,808,809,810,811,812,813,814,815,816,817,818,819,820,821,822,823,824,825,826,827,828,829,830,831,832,833,834,835,836,837,838,839,840,841,842,843,844,845,846,847,848,849,850,851,852,853,854,855,856,857,858,859,860,861,862,863,864,865,866,867,868,869,870,871,872,873,874,875,876,877,878,879,880,881,882,883,884,885,886,887,888,889,890,891,892,893,894,895,896,897,898,899,900,901,902,903,904,905,906,907,908,909,910,911,912,913,914,915,916,917,918,919,920,921,922,923,924,925,926,927,928,929,930,931,932,933,934,935,936,937,938,939,940,941,942,943,944,945,946,947,948,949,950,951,952,953,954,955,956,957,958,959,960,961,962,963,964,965,966,967,968,969,970,971,972,973,974,975,976,977,978,979,980,981,982,983,984,985,986,987,988,989,990,991,992,993,994,995,996,997,998,999,1000,1001,1002,1003,1004,1005,1006,1007,1008,1009,1010,1011,1012,1013,1014,1015,1016,1017,1018,1019,1020,1021,1022,1023,1024,1025,1026,1027,1028,1029,1030,1031,1032,1033,1034,1035,1036,1037,1038,1039,1040,1041,1042,1043,1044,1045,1046,1047,1048,1049,1050,1051,1052,1053,1054,1055,1056,1057,1058,1059,1060,1061,1062,1063,1064,1065,1066,1067,1068,1069,1070,1071,1072,1073,1074,1075,1076,1077,1078,1079,1080,1081,1082,1083,1084,1085,1086,1087,1088,1089,1090,1091,1092,1093,1094,1095,1096,1097,1098,1099,1100,1101,1102,1103,1104,1105,1106,1107,1108,1109,1110,1111,1112,1113,1114,1115,1116,1117,1118,1119,1120,1121,1122,1123,1124,1125,1126,1127,1128,1129,1130,1131,1132,1133,1134,1135,1136,1137,1138,1139,1140,1141,1142,1143,1144,1145,1146,1147,1148,1149,1150,1151,1152,1153,1154,1155,1156,1157,1158,1159,1160,1161,1162,1163,1164,1165,1166,1167,1168,1169,1170,1171,1172,1173,1174,1175,1176,1177,1178,1179,1180,1181,1182,1183,1184,1185,1186,1187,1188,1189,1190,1191,1192,1193,1194,1195,1196,1197,1198,1199,1200,1201,1202,1203,1204,1205,1206,1207,1208,1209,1210,1211,1212,1213,1214,1215,1216,1217,1218,1219,1220,1221,1222,1223,1224,1225,1226,1227,1228,1229,1230,1231,1232,1233,1234,1235,1236,1237,1238,1239,1240,1241,1242,1243,1244,1245,1246,1247,1248,1249,1250,1251,1252,1253,1254,1255,1256,1257,1258,1259,1260,1261,1262,1263,1264,1265,1266,1267,1268,1269,1270,1271,1272,1273,1274,1275,1276,1277,1278,1279,name
-0.017647006,-0.047905594,-0.039058313,-0.07202866,-0.02293836,-0.004887318,-0.041692685,-0.009338582,-0.10482308,0.0023122025,0.033842698,-0.09835237,0.03561521,0.007390983,0.031590424,-0.08118603,-0.02892922,0.005598096,0.01682831,-0.016349575,0.01579615,0.034810685,-0.030398719,-0.059067905,-0.030335156,-0.07986726,-0.021879323,-0.026601175,0.020941457,-0.028830249,0.012214062,0.05058009,-0.0045673796,-0.07172545,0.05829426,0.012229965,-0.090815164,0.06957462,0.010547199,-0.030522844,-0.043536913,-0.017817363,-0.0020010693,0.039725643,-0.025347121,-0.040208172,0.022142036,-0.07237358,-0.03665854,-0.044835366,-0.021430146,-0.029764293,-0.086681545,-0.03292977,-0.023177456,0.04210978,0.002716029,-0.026698917,0.03559992,0.04979636,-0.08579516,-0.05906583,-0.07532231,0.010664679,-0.03557096,0.049083,0.050185643,-0.08765949,-0.07312654,-0.055177543,-0.08266496,0.054498434,-0.023831611,-0.105309494,0.0113497935,-0.091063164,0.016829837,-0.05865797,-0.030272026,-0.05537353,0.011387543,-0.09234592,-0.10174021,-0.06507454,0.004757041,-0.0546694,-0.09492819,-0.00884242,-0.026737155,-0.07936935,-0.015115907,0.0467887,-0.05726913,0.016236115,-0.051536966,0.04055208,0.028351594,0.034910344,-0.00016535961,-0.02028878,0.036827646,0.01117956,0.03714804,-0.016323015,-0.026085194,-0.12490651,0.039515976,-0.056991193,-0.025686983,-0.044293992,-0.005315055,-0.040570978,-0.0723443,0.0387946,-0.035401333,-0.024616752,-0.014508202,0.04034954,0.018667419,0.03192388,-0.029130671,-0.0037393041,-0.009339968,0.018084142,0.037733905,0.047393024,-0.07406823,0.03199522,-0.026976243,-0.06611152,0.03796686,-0.03661251,-0.076172374,0.0022743251,-0.056484137,0.025733111,-0.05348213,0.023026345,-0.05331347,0.00869212,-0.034929425,-0.04436135,-0.08025945,-0.09255216,0.028974598,-0.022895852,-0.017990407,-0.029375445,0.0564755,0.04827754,-0.044394497,-0.0041531594,-0.076249264,-0.07689211,-0.086650014,-0.051341146,-0.080632955,-0.0063611176,-0.0022663465,0.0004528663,-0.07860935,-0.04829291,0.0013982235,-0.048014514,-0.012063201,0.016732205,0.023320397,0.03213823,0.057513546,0.019186057,-0.057646804,0.015223351,0.038985483,-0.058393046,0.02494545,-0.051221143,-0.026826952,-0.06825703,-0.075756654,-0.01755451,0.036234144,-0.018380946,0.033897042,-0.04927451,0.030337576,-0.06681583,-0.032865055,0.036551524,-0.041624334,0.01584312,0.026298644,-0.026992967,-0.011231046,-0.01860055,-0.02876458,-0.011711748,0.010815016,-0.05990125,0.06550942,0.04465031,-0.043943495,-0.0061317235,-0.051294204,-0.059525903,-0.015122557,-0.046243127,-0.035050157,-0.0010963478,0.03027236,-0.024223909,0.067424655,0.050347812,-0.063716464,-0.018757705,-0.038767155,-0.07022901,-0.0045482195,-0.037111502,0.044950966,0.031365164,-0.061225776,0.03857364,0.05381982,0.009190155,0.04783083,-0.01859766,0.02551555,0.016295932,-0.09053933,-0.08876086,-0.04389832,-0.009239449,-0.06374778,-0.029667113,-0.06262659,0.0124168815,-0.07412843,-0.11258294,0.00770912,-0.010411183,0.011374048,0.008432913,-0.09192707,-0.041083977,0.008529151,0.030455982,0.0072037247,-0.04994353,-0.0035996167,0.03190629,0.046872586,0.0071563018,0.013967121,-0.0049520805,-0.004742907,0.034987986,0.006919614,-0.056500386,-0.08594715,-0.03846853,-0.077179335,0.045269825,-0.06481416,-0.06817296,-0.030294297,-0.007882009,0.017093187,-0.02171735,0.009862991,-0.00012384822,-0.03131439,-0.039588273,-0.044607256,0.037467487,-0.09187899,0.04588132,-0.07519682,-0.026491873,-0.088229984,-0.01171603,-0.06401993,-0.01922926,0.07569082,0.07161117,0.0080812955,0.0007987061,0.00266942,-0.060168516,-0.045876857,0.033823263,-0.058329917,0.0043912954,-0.051668745,0.0228496,-0.093192875,-0.046677325,0.0056622983,0.0030870999,0.06696829,-0.028089957,0.04359668,-0.052828915,-0.03340855,-0.04393776,-0.08009307,-0.08783309,0.006700691,0.010850653,-0.014200938,-0.04712469,-0.0708034,-0.10719066,0.071097925,0.036109135,0.017414914,0.095044576,0.00034783728,-0.036491998,0.026891237,0.04907067,-0.03870847,0.013273006,-0.067324474,-0.094226286,-0.0981021,-0.047657438,0.023344196,-0.011569649,-0.059625685,-0.020148106,-0.013689076,0.05473,-0.062222727,-0.06393586,-8.234326e-05,-0.042348076,0.010721424,-0.067217536,-0.034812402,-0.02800181,-0.042117722,-0.058853753,0.017387925,-0.0468307,-0.013166525,-0.023684803,-0.08374395,-0.034219537,0.017225262,-0.07336491,-0.0067528575,0.04371909,-0.040821023,0.01803985,-0.028220942,-0.066608846,0.020599252,0.02441931,-0.040791336,-0.053895473,0.047717646,-0.08789716,0.027410103,-0.017158313,-0.043503787,-0.061875753,0.05577079,0.06768511,-0.017341359,0.03836979,-0.08615702,-0.07386952,0.03126926,-0.055337146,-0.08443308,0.0069425795,-0.08862575,-0.055992305,0.027839696,0.04980761,0.014454691,-0.057321154,0.007583829,0.08768557,-0.06445938,-0.052710548,-0.07865598,0.0051714275,-0.002222791,0.0021424128,0.042859107,-0.026721615,-0.09562515,0.08403388,-0.0405376,0.03362888,-0.066610165,-0.06885439,-0.013809298,0.045786005,-0.009259244,0.012649047,-0.07017407,0.008488172,0.049821824,0.05602924,0.0028304795,-0.03737536,-0.0070339194,-0.08550446,-0.048549768,-0.031235605,-0.017225143,-0.040336113,-0.024427366,0.025083084,-0.059801795,-0.06380911,-0.08819242,0.07398926,-0.038880676,0.023088427,-0.053916547,-0.031273123,0.02305909,0.0049511655,-0.091228634,0.026206754,-0.034438025,-0.033240225,0.037507657,0.051920842,-0.024314618,0.05347462,-0.10619643,-0.008032234,-0.0562512,-0.046419125,0.0660997,-0.0635506,-0.04094175,0.035508163,-0.10282543,0.038380567,-0.018130643,-0.009553281,0.07432547,0.069345795,0.022296714,-0.044175375,-0.017291782,0.008318522,-0.047601014,-0.037465334,-0.020181347,-0.088420995,-0.034474134,-0.017631589,0.04940204,0.03695027,-0.07633474,0.041753978,-0.068229556,0.03428622,-0.03359261,0.0066376138,-0.070878215,0.02024255,-0.011886057,-0.0149025135,0.030173084,-0.04479955,-0.08454255,0.024180016,0.016540188,-0.06987833,0.037620924,0.022015912,0.025290668,0.02589792,-0.03652411,0.041892447,-0.06458323,0.028315341,-0.050941713,-0.056753896,0.080626525,0.06762632,0.019529888,-0.10013153,0.026706625,-0.024178157,-0.026358195,-0.0047227438,-0.09375047,-0.049693584,-0.028682232,-0.011453848,-0.045309998,-0.06801354,0.016338428,-0.001352025,0.010060694,-0.06778518,-0.053135846,-0.08023108,-0.023193095,-0.113158636,-0.0017163148,0.012137496,-6.370843e-05,0.030792186,-0.10220032,-0.06933539,-0.040423024,-0.035528466,-0.009838359,0.039884012,-0.07635158,0.0024147744,0.01334501,0.0031553188,0.06752265,0.0012992085,-0.044510454,-0.08477506,-0.0048428723,-0.069830075,0.029952323,-0.0619133,-0.06625305,-0.081303924,0.0064421166,0.0067227646,0.05061169,-0.07811982,-0.09306453,-0.07904709,-0.040671416,0.05364736,0.02905378,-0.0025091611,-0.011779825,0.009514889,-0.009834979,-0.018757483,0.02256227,0.0011535027,-0.04670399,-0.07571299,0.0008365139,-0.053922895,-0.060614374,-0.06635492,0.059319276,-0.034344934,0.0005284783,-0.07695859,0.068325564,0.052228093,-0.06859868,-0.023512755,0.03224854,0.09886856,-0.029246343,-0.010086747,0.024055706,-0.07677244,0.013862403,0.018861087,0.07557162,-0.07209881,0.0045647984,0.06627052,0.045404583,-0.09754726,-0.057211276,0.011699858,-0.0064840904,-0.020575691,0.056960225,0.003991443,-0.07951827,-0.027112516,0.029137166,-0.10531786,0.050109066,-0.017205713,-0.030950854,0.020550242,0.041833032,0.03918277,-0.068599045,-0.011273349,-0.00011229139,-0.0039742156,-0.025014238,-0.066663034,0.07692795,0.011723174,-0.023175793,-0.0023787098,-0.07172854,-0.039139986,-0.004315234,0.0075746924,0.034156654,0.034217328,-0.045929376,-0.06137289,0.078897126,-0.025393574,0.012801598,-0.007512888,-0.06658628,0.017527597,-0.024871197,0.010426714,0.07095666,0.03552537,0.013262135,-0.010383057,0.016359653,-0.025408968,-0.07939281,-0.11043703,0.0086130425,0.013524866,-0.058885813,-0.0030127594,0.013003986,-0.085239604,-0.049311772,0.0034151895,0.06275157,0.008220411,0.07770932,-0.057775978,-0.0021308323,0.0055072987,0.0060436344,0.044617813,-0.034029044,-0.05496575,-0.06411223,-0.012846895,0.016576026,-0.0342373,-0.08351427,0.049667887,-0.013283668,0.04621006,-0.055222597,-0.08790544,-0.05324085,-0.034469273,0.037756637,-0.05190968,-0.100975126,-0.024394384,0.04610985,0.015935952,-0.03157046,0.032852206,0.033924785,0.00066841446,-0.03074614,-0.033595446,-0.009797946,-0.027188063,-0.052372,0.028669005,-0.046922993,0.04551951,-0.087550536,0.052415036,-0.052508526,0.0005356605,0.015190546,-0.03643347,-0.032735813,0.00831931,0.010620601,0.052311532,0.05251934,-0.04874809,-0.02510028,0.0072293184,0.039197233,-0.0108997235,0.0248887,-0.02468522,-0.012789094,0.011749936,-0.025759092,-0.05859367,-0.05080662,0.058105428,-0.06865763,0.039771527,-0.049270406,-0.059744902,-0.04809065,-0.017686708,-0.0561413,-0.0149864005,0.02606479,-0.00308694,-0.02623071,0.008687173,0.036049776,0.00419847,-0.022298222,0.016469644,-0.06635202,0.011963057,-0.045904845,0.0063486155,0.049432337,-0.07234403,-0.030282423,-0.04730782,-0.06212924,0.020749196,-0.020762881,-0.004696132,0.017325204,0.035337243,-0.07545548,-0.06572779,0.0066626584,0.043312103,-0.077091284,-0.027699126,0.055836536,-0.043524984,-0.047121234,-0.07012174,0.021695316,-0.034648746,-0.042830523,-0.036299456,0.05647007,-0.09249684,-0.04737772,-0.05211253,0.007077469,-0.05342574,-0.025700524,-0.043802284,0.038879696,-0.08569016,-0.063974716,0.021529837,0.049531993,-0.024737528,0.028581953,-0.034037992,0.012961352,-0.019344602,-0.0021644565,0.048405644,-0.061727427,0.0011163771,-0.03751675,-0.08181018,0.036385506,-0.066166185,-0.002066594,-0.05542418,0.014295212,-0.05682022,0.025712086,0.009804269,0.02534243,-0.032242734,-0.10142066,0.007622897,0.035200253,-0.040855266,-0.0030282263,0.023098214,-0.055463605,-0.010678807,-0.05188827,-0.045686796,-0.056134168,0.031966314,-0.071454294,-0.10680653,-0.05914591,-0.05775558,-0.057162713,-0.047299612,-0.03998092,0.0041153324,-0.06837542,0.019036232,-0.056778528,-0.049599946,0.018658383,0.060657915,-0.06706294,-0.04328602,-0.029269928,0.018205725,0.001702059,-0.07534612,0.03704894,-0.017010462,-0.061270665,-0.0785662,-0.11397032,-0.014873323,0.031587012,0.015947413,0.029454028,-0.0042415382,0.0330263,-0.034586933,-0.05535375,-0.012286048,0.010023848,0.022795469,-0.018240651,0.0037654275,-0.00020765768,-0.0076061497,0.03201781,-0.0131169,-0.082092755,0.02052103,0.03369969,-0.019661944,-0.06747057,-0.030686501,-0.05236007,0.05008311,-0.070201516,-0.04615782,-0.050292876,0.020144233,-0.04917796,-0.03137821,0.015449955,-0.06864174,0.018304035,-0.016893161,0.019397033,0.017683793,-0.04385235,0.029847149,0.0126264775,-0.037924264,0.03150198,0.007953689,0.020093778,0.016979637,0.029352078,0.007550103,-0.023166772,-0.06128968,-0.0421874,0.01846543,0.0088936,0.069598615,-0.015395719,-0.06385384,-0.0161482,0.0125975385,0.018370152,-0.06476428,-0.065390304,-0.031594764,-0.04051017,0.021994542,0.010851672,-0.009444292,0.011448159,-0.015936349,-0.05425986,-0.03182544,-0.09579009,0.046934444,0.03604236,-0.065187596,0.035170443,-0.010861211,0.040582065,0.032496452,-0.022258542,-0.045579992,-0.033743583,-0.058401704,-0.0066695316,-0.027417857,-0.10157564,0.014150249,-0.029514328,0.014865021,0.058507256,-0.0053525288,-0.047815964,0.05022027,-0.052943163,-0.017552972,-0.0867062,-0.06782004,0.071896315,-0.10184554,0.047593363,-0.038943037,-0.07119095,-0.026612721,0.0033803885,-0.08729231,-0.063344665,-0.012487127,-0.005460805,-0.026866281,0.022715615,0.017900627,-0.05312238,0.009702209,-0.03027949,-0.03640336,-0.028535882,0.015664289,-0.014038861,-0.025322584,-0.048343338,-0.020803224,0.01644319,-0.058367766,0.017566793,-0.0054043946,-0.05329503,0.0046543772,0.0020828315,-0.037194423,0.02669873,0.023692742,-0.010471459,0.018669939,-0.010211559,-0.022456408,-0.010852359,-0.034390215,0.0031938863,-0.04280316,-0.057957776,-0.0029698636,-0.0571718,0.03162624,-0.008491458,-0.048522267,-0.030680746,0.028222306,-0.04112704,0.00949658,0.012003926,0.047621828,-0.0720911,0.026113363,-0.0030844065,0.03749515,0.06728907,0.016200224,-0.053923894,0.049246993,-0.061106384,-0.03370186,-0.035275355,0.0028733532,-0.031511117,-0.008064379,0.060920287,0.019252134,-0.032602735,-0.042928033,0.045460586,0.025995355,-0.09056238,0.0074308002,0.032644447,-0.0677984,-0.0749621,0.019210223,0.0060538026,-0.006154508,0.03183127,0.07482272,-0.028960632,-0.06671983,-0.06266898,0.03379298,0.0019431413,0.030700246,0.06908736,-0.026979877,0.0043276427,-0.0032937396,-0.03766191,-0.03692297,-0.02662912,-0.04128438,0.031640176,0.04434775,0.0038201679,0.03725958,-0.011861906,0.02748186,0.025304515,-0.009910274,-0.0026387433,-0.031562544,-0.08669316,-0.02266944,-0.03637123,0.040218025,-0.034284227,-0.008232872,-0.09283551,-0.03501056,0.013536714,-0.077320166,0.012261679,-0.005207192,-0.04005865,-0.06114176,-0.014841414,-0.02900636,0.0122705,-0.11422609,0.050153892,-0.054888397,-0.0063985903,0.016017549,0.05919861,0.04165632,-0.054510433,0.028659385,-0.021914547,-0.04767027,-0.00014433188,-0.059322428,-0.060946252,0.047794152,-0.039111853,-0.019979544,-0.05986356,-0.02549182,-0.06707512,-0.06521044,0.005626986,-0.08332021,-0.09542675,-0.084664196,-0.046309356,-0.021334847,-0.013280641,0.055114865,0.0080780005,0.04778435,0.04092519,-0.042802718,0.024187444,0.03931069,-0.084809735,-0.036779255,-0.09524839,-0.03499833,-0.045648523,-0.06731424,-0.04717901,-0.00067183684,0.061169684,-0.039230846,-0.10649833,-0.004184938,0.019623468,0.015529475,-0.026653934,6.521997e-05,-0.08176299,-0.085601166,-0.041731417,0.029188279,-0.023690928,-0.10023548,-0.025528532,0.03220703,-0.014752142,-0.07587834,-0.04281034,-0.0017984643,-0.108668566,-0.09411919,-0.00020790558,0.07550402,-0.024828527,-0.018645324,-0.026075236,0.013771993,-0.0076644104,-0.056329567,-0.015038995,0.05038612,0.07652168,0.055973757,0.075084336,-0.089621566,0.010633563,0.0062845913,-0.0482874,0.032076966,0.0012092872,-0.001555503,0.03220407,0.00279241,-0.008199623,-0.04202983,-0.04004953,-0.06561833,0.05925814,0.011657614,-0.08878182,-0.05570043,0.028270515,-0.09884186,0.016848033,-0.034890875,-0.11318906,0.041330002,-0.028148303,-0.074078776,-0.07976725,0.023664216,-0.059742298,-0.027671143,0.004731663,0.0045607975,0.02404252,-0.0779662,-0.045923613,-0.053862087,-0.061306693,0.024944836,0.030155808,-0.0057890182,0.031872127,-0.07003368,-0.022261601,0.002653801,-0.06931557,-0.036216684,-0.054972187,0.0380515,-0.025981199,-0.0043284767,-0.030319132,0.023122592,0.080455124,-0.09598357,-0.03877271,-0.011953001,-0.05259163,0.03204005,-0.055653792,-0.012357743,-0.09162957,0.034339026,-0.09606818,0.015933236,-0.041210975,-0.047859687,-0.0140084345,-0.05240305,0.017234107,0.0030315507,0.00627702,0.020523146,0.046743628,0.06701865,0.00887315,-0.037099898,0.044023342,-0.038864035,-0.00019254402,0.005469607,0.05612549,-0.039408974,0.060853112,-0.038219884,-0.0671588,-0.0023185916,-0.07497073,0.012033304,-0.00011316941,0.024237227,0.06610783,-0.045612935,-0.106002286,-0.058607534,-0.023839025,-0.045886986,-0.03646489,-0.0018357121,0.041388553,-0.108099476,0.011881092,-0.04272496,-0.061974697,0.026985588,-0.092743315,0.051756866,-0.063272715,0.020451851,-0.029631589,-0.04602498,-0.026545946,0.022492902,-0.043650135,-0.039255522,0.038320817,-0.10319333,0.011233576,-0.0065484303,-0.082506575,-0.07442733,-0.052999355,-0.009410339,-0.0072688395,-0.0510702,-0.0036545,0.012103245,-0.040068004,0.010184184,-0.09087392,-0.04513762,-0.035133135,-0.054397132,-0.07146953,0.015962534,0.023944579,0.04294388,0.03906143,0.08312507,-0.020384101,-0.0223305,0.0067230384,-0.1185011,-0.017066622,0.0046653883,-0.056943983,-0.097858414,-0.033407766,0.03722241,-0.012373792,-0.0030495455,-0.02052359,0.0054023997,-0.018319434,-0.07428077,-0.09018289,0.043583933,-0.010622826,0.04734954,0.019380696,0.00798519,-0.066426545,-0.08129277,-0.044882223,0.0024776785,0.016022945,0.05164876,-0.039465617,-0.0459695,0.01628289,-0.004280527,manual_forklift_with_lift
0.02200023,-0.047887422,0.05728021,-0.015024791,-0.012729402,-0.0014480903,0.04693933,-0.06812191,-0.04263513,-0.020776296,-0.059191123,-0.053538397,0.05982432,-0.032279737,-0.070201084,0.04202207,-0.034448903,-0.0036421355,0.024276724,-0.010642566,0.07637264,-0.011784647,-0.05264652,-0.04683241,-0.02593686,0.049461838,-0.020915603,-0.030256426,-0.03134523,0.039556213,-0.021939388,0.077552654,-0.031657666,0.01972614,0.05472736,0.08572815,-0.001168305,-0.046345226,-0.022439046,-0.12046082,-0.021717176,-0.027243847,0.019835679,-0.039917488,0.00040851993,0.07788806,-0.058615927,0.023666373,-0.075843446,0.017285574,0.034978934,-0.08421111,-0.037729528,0.024339242,-0.03118159,-0.04603021,-0.013685957,0.010865313,0.015842969,0.009276023,0.02284505,-0.04377696,0.09017333,0.07563582,-0.024766147,0.07855359,0.035462253,0.03552571,-0.024361787,-0.06367858,-0.021941284,-0.04162468,-0.024582265,-0.03045023,-0.007454009,-0.07539532,-0.023081921,-0.10097435,-0.062532976,-0.017142326,0.0016021174,0.026176292,-0.009460985,-0.06569314,-0.009508194,-0.040174868,-0.07602727,-0.04219715,0.037993427,-0.011910273,0.024462476,-0.04008223,-0.018035688,-0.041686498,0.05657454,-0.01734706,-0.0153641,0.041590653,-0.05026164,-0.094441295,0.021769859,-0.07670132,-0.0007331695,-0.0505431,-0.05459038,-0.10263163,-0.0648635,0.024505397,0.01703741,0.0064060865,-0.0629663,0.002494052,0.012532482,0.012085636,0.05397382,-0.029667681,-0.086156555,0.050807573,0.033948924,-0.03301473,-0.08073863,0.060215373,0.055097602,-0.054182716,0.05909483,-0.07991085,-0.10542082,-0.051040936,-0.063179284,0.07841725,-0.07371244,-0.088231206,0.01801704,-0.013976942,0.05552725,0.04110425,0.016587298,-0.022544965,-0.08536789,-0.022721443,0.031243915,0.021585377,0.0053103645,5.9299535e-05,0.06377077,-0.015237679,-0.051863834,0.019251144,0.027128324,0.030138822,-0.012516538,-0.033157226,-0.025757523,0.016070824,0.0061020693,0.055302158,0.06296642,-0.014666008,0.01381161,-0.0037863012,-0.01331528,0.01052715,-0.06720903,0.0045864927,-0.009294663,0.017422572,0.0050880257,-0.053116854,-0.016283933,-0.027557092,-0.06245207,-0.08327872,0.03185359,-0.018307459,-0.06903727,-0.06471081,-0.016819708,0.0064223,-0.08690129,0.06846033,-0.047142085,0.035525165,-0.042700045,0.02908194,-0.056968056,-0.01408867,-0.009696924,-0.00906059,0.04194334,0.012345929,0.035842933,-0.012717909,-0.018549286,0.014107381,0.028697385,-0.00425424,0.036971122,0.030690562,-0.050421726,0.02000528,-0.022678597,-0.04120696,-0.008561654,0.058425065,0.020731306,0.059572127,0.006177671,-0.07992362,-0.0070496877,0.044143796,-0.06650637,0.01623039,-0.038214725,-0.02807697,0.016452294,-0.0317978,-0.06405885,-0.058159273,-0.05583936,-0.009745929,-0.015900033,-0.097882435,-0.013715703,-0.09067962,-0.05206881,-0.017429132,-0.030660985,0.062726885,-0.029753432,0.021277845,-0.070593625,0.02851375,0.02067318,-0.10053446,-0.07498238,-0.048167676,-0.03953082,-0.035804287,0.02626224,-0.080739886,-0.0048472197,0.06547312,0.002703361,-0.05169918,-0.06775974,-0.10711475,-0.018761903,0.02939889,0.022810888,-0.057200972,0.0021837128,-0.0014308305,0.06487452,-0.027551074,0.045983627,-0.060118936,0.016744556,-0.05838664,-0.03831088,-0.050104897,-0.009430491,0.057032816,-0.025533386,-0.07144741,-0.059743285,-0.014528635,-0.033489548,-0.0901537,-0.0104869325,-0.08987325,-0.07358683,0.014342056,-0.05721875,-0.049438514,-0.009060434,0.0007959184,-0.119930446,-0.06277868,-0.06297437,-0.007827875,0.0569834,-0.018856658,-0.01789178,0.09213964,-0.017149474,-0.09048797,-0.08587475,0.019483032,0.070902616,0.014812489,-0.05519381,-0.014569174,-0.021888493,-0.029207563,-0.08288083,0.0004721719,-0.022970324,-0.060047355,0.021285772,-0.024721758,0.0775533,0.030195892,-0.00530073,-0.05135906,0.046390347,-0.0880935,-0.032312613,0.07525859,0.0045143035,0.047423523,0.10278399,-0.035402387,-0.0053845868,-0.087102644,-0.034029774,0.019253716,0.048019662,-0.074466914,0.016481185,-0.017455347,0.050588317,0.017477244,-0.011762473,-0.026725862,-0.08082436,-0.05905165,0.06606985,0.0069168108,0.09498268,-0.008043506,0.0006112284,-0.07109539,-0.08123763,-0.051028054,-0.06984041,-0.004864579,-0.074776895,-0.05251365,-0.05062878,0.050861467,-0.011102541,-0.050519455,-0.03850533,0.040262464,0.028138908,-0.0472139,-0.03139689,-0.03374119,0.010820267,-0.07294053,-0.031950008,-0.043774813,0.0020677485,-0.054106135,-0.008369217,-0.060723558,-0.017045861,-0.07361707,0.01259811,-0.014158223,-0.03139841,-0.03965334,-0.025095208,-0.08586572,0.02228963,-0.09746138,0.08062017,0.009452256,0.007836153,-0.018758804,0.0055044945,0.02333731,-0.0060599027,0.0013259432,0.05625762,-0.039261065,0.014419756,0.0059336177,-0.030711887,0.024455903,-0.04021539,0.03742688,0.023206199,-0.055751927,-0.0150093585,-0.07749562,0.07970332,-0.09069618,0.016878529,-0.067565374,-0.032529257,0.0024910334,0.012549309,0.06506625,-0.01852752,0.030912543,-0.0016745136,-0.06236101,0.005851318,0.049799636,0.049178563,-0.006469677,-0.03627398,-0.06940028,0.05239199,-0.0026724818,-0.011078401,0.058155295,0.0666854,-0.09990655,-0.016294135,-0.039614454,0.0062067993,-0.05587467,-0.089271665,-0.092234395,-0.11016765,0.031876445,0.00233244,-0.044240803,-0.013497946,0.023031026,-0.06752655,-0.11250823,0.03175738,-0.10328236,-0.020133762,-0.0009455639,-0.026318539,0.018989459,-0.07755526,-0.06859864,-0.07795643,0.062650256,0.0015102389,0.026097596,-0.08789708,0.0031615444,0.04156259,-0.014375429,-0.032571763,-0.013589641,-0.0028141534,0.0059591373,-0.07353434,-0.09140102,-0.033080988,0.022648513,0.007457011,0.0683831,-0.008575334,-0.10631176,-0.05901603,0.021379605,-0.013766384,-0.058779914,-0.023767998,-0.017626155,-0.012601146,-0.015529043,0.008298241,-0.011686165,0.029738272,-0.032768473,-0.016803928,0.018227944,-0.01246367,-0.012761542,-0.024042377,-0.07457231,0.053124733,-0.03867927,-0.041412227,-0.032961123,-0.07296316,-0.060746014,-0.010295428,-0.05625514,0.014136955,-0.04023207,0.044046797,-0.04170863,-0.05913053,-0.01976626,-0.085195,-0.024006616,0.021672651,-0.06932663,-0.07508601,-0.039164033,-0.053021085,0.056787875,0.016544007,-0.02182311,0.006929721,-0.106416956,-0.045949712,0.0020011119,-0.023125365,-0.009491807,0.0023905097,-0.061819013,0.0219875,-0.039677028,-0.058799956,-0.02847247,-0.073635474,0.0052044755,-0.03136204,-0.07930858,-0.064143226,-0.0057828785,-0.0816281,-0.05714294,-0.016392874,0.0005227002,0.031249493,-0.02055778,-0.0060790814,-0.0036725707,0.05364331,0.015695373,0.014529115,-0.031476993,-0.03393816,-0.056842465,0.07470541,0.01988372,-0.011190768,0.020787146,-0.016007312,0.07114101,-0.009232193,0.021064717,0.029512733,0.0034963982,-0.0019802647,0.015968269,-0.057765454,-0.048082292,-0.084427215,0.017044103,-0.036248647,-0.044597227,-0.046524644,0.023203967,0.037742395,-0.08889001,-0.033874184,0.042214364,-0.05083322,-0.0718384,0.049878024,0.039550617,-0.039736763,0.03470089,-0.0059814313,0.0058830827,0.018624004,0.078149304,-0.022508321,-0.039031807,-0.021046491,-0.088825345,0.07168805,0.024471318,-0.028058084,0.016197363,-0.056711677,-0.05003315,-0.0309756,-0.037464216,-0.040307753,-0.038857017,0.030402916,-0.027624818,-0.016238913,-0.033845216,0.0122411065,0.053027187,0.029417291,0.00191372,-0.099785954,-0.08614329,-0.055753615,-0.08773754,-0.04894574,0.016269296,-0.06943267,-0.035181634,-0.0844855,-0.009121,-0.004971229,-0.05855748,-0.0053081927,-0.092517786,-0.0152354725,0.022745002,0.04415763,-0.016925378,-0.05886864,-0.07104084,0.023467602,-0.0039035124,-0.09259203,-0.031830218,0.02689877,-0.042815913,-0.05715284,0.0004994922,0.034854002,0.021268955,0.0050306153,0.022126852,-0.040640928,0.046202302,0.020626953,-0.02204136,-0.030247306,-0.06430489,0.022793448,-0.02336694,-0.039387103,-0.02321364,-0.023993745,-0.11261296,-0.0028039243,0.00822399,0.027556019,-0.13070154,-0.046056453,0.0377744,0.0005050754,-0.040240552,0.029612528,-0.03179069,-0.000745205,-0.06430649,0.011989,-0.07897716,-0.04025098,0.0017444735,0.055665173,0.05437375,-0.028867176,0.055634692,0.061657067,-0.03703042,-0.03835527,0.0031899924,-0.15195478,-0.023822585,-0.042200416,0.007775975,-0.030162673,-0.05544713,-0.029248992,0.02534788,-0.044290036,0.0018373992,-0.056142777,0.06850147,-0.100346655,0.04937935,-0.04337257,-0.03787025,0.0010646334,-0.02691411,0.016382018,-0.048193567,-0.075965784,-0.08924424,0.09427366,-0.008718347,-0.02322038,-0.041356377,-0.044953458,-0.06493095,-0.013941321,-0.007025482,-0.0015009205,0.07671199,0.020306915,0.029732367,-0.04386662,0.0741763,-0.08833289,0.0050807744,-0.022932997,0.005304802,-0.034321293,0.04895091,0.03169663,0.015025191,0.007409793,-0.0016824848,0.03713723,-0.03287295,0.07003769,-0.07541422,0.011140981,-0.060814504,0.027450934,0.016174832,-0.025575941,-0.010247622,0.009254066,-0.030579777,0.017958293,-0.06718199,0.021770261,0.03148719,-0.04281339,-0.049571402,0.016007926,0.073219866,-0.009206904,0.04736467,-0.03154226,0.044929992,-0.04147199,0.091801375,-0.038462646,-0.002513084,0.006209449,0.0077817882,0.0427612,0.022805952,-0.0042754733,-0.053105008,0.0011429961,0.07286783,-0.05879771,0.015036027,-0.06033624,-0.0511272,-0.07166724,-0.03374856,-0.0645884,-0.0054738303,-0.11563014,0.071368515,0.016407011,0.014210756,-0.05489602,0.018010002,0.006265279,-0.08093529,-0.0013275043,-0.084475696,0.04551202,-0.018828962,-0.001913529,0.042979546,-0.017159166,-0.054917704,-0.08705902,-0.041870087,-0.05822497,-0.04439498,0.031212287,0.06910408,0.019291664,0.021221584,0.05009129,-0.042210493,0.033024047,-0.02477758,0.006580849,-0.074629344,-0.059691504,-0.047672328,-0.0341392,-0.015051623,-0.020637847,0.08001999,0.036185265,0.012681347,-0.0354517,-0.075246125,-0.07134272,0.046129156,-0.018860625,-0.060211673,-0.009998826,-0.012098657,0.0022021257,-0.00615027,0.032004394,-0.048497163,0.037295543,0.010097352,-0.07631081,-0.12387208,-0.047494624,-0.056145143,-0.06299252,0.0012288638,-0.06312493,0.06177517,-0.041621923,0.036852892,-0.012302598,0.054058496,0.08643174,0.010101115,0.0031039403,-0.040129453,-0.07515245,0.056169122,0.059085287,-0.0096622305,-0.016889585,-0.03047232,0.010427231,0.010239726,-0.025468558,0.052668322,-0.0019086172,-0.03832206,0.020837568,0.018496871,-0.07741621,0.044317976,0.04950117,-0.039033998,0.030969629,0.021183727,-0.027386764,-0.031443328,-0.030229922,-0.004582408,-0.09374008,0.05814677,-0.091751225,0.011216927,-0.033214763,0.016819844,0.0063466174,-0.0018813462,0.027517691,-0.012987237,-0.07677975,-0.014889908,-0.032172725,-0.10753389,-0.0519609,-0.019393763,-0.01001414,-0.017422989,-0.026897652,-0.043340575,-0.02839316,-0.018753186,0.042462006,0.059328847,-0.0846936,0.060846314,-0.0533142,-0.0029875885,-0.010287902,-0.10885709,-0.042729788,0.016619565,0.043563247,-0.02392236,-0.08501741,-0.036169413,0.029930223,-0.08798458,-0.042040754,0.038742907,-0.0652231,0.025762266,-0.041355174,-0.007491607,-0.0886321,0.015909173,0.06016693,-0.008829899,0.034820538,0.0151160695,-0.12046658,0.041152272,0.045841686,0.04405684,-0.05937626,-0.054029748,0.03613828,0.009474412,0.007690775,-0.03642134,-0.07886481,0.040485006,0.047652353,-5.8204645e-05,-0.008929831,0.05972246,0.03135084,0.0651051,-0.02757774,-0.09898242,-0.04311627,-0.054566555,0.0738959,-0.03846891,-0.08112975,-0.083327025,0.03645116,-0.040136386,-0.051184088,0.0016536837,0.003171764,-0.00402002,0.008802447,-0.0005720669,-0.009400341,-0.030997355,0.032029733,0.0021355078,0.046432,0.027840648,-0.06299064,0.030303083,-0.009675975,0.00025155567,0.04238699,0.036459323,-0.012547723,0.00045701614,-0.070010014,0.041457567,0.0061231526,-0.054696046,-0.0043307682,0.005357319,-0.041537523,-0.041644186,0.023181379,0.0476006,-0.013623156,-0.06265984,-0.030021803,-0.004193368,-0.080800265,0.07479127,0.0074000643,-0.026161488,0.030805074,-0.05442846,0.0014876189,-0.094458364,-0.09154613,0.043255206,-0.071882,0.0085959565,-0.048646435,-0.050767332,-0.037440795,0.007971789,-0.031360473,-0.061927002,0.06074212,-0.027773641,-0.037085596,0.016506076,-0.009495151,-0.0052351407,-0.026843512,0.05080962,0.027185943,-0.07452071,0.0015368918,-0.019578708,-0.05985441,0.047616214,-0.035114698,-0.069511876,0.076114476,-0.067700215,-0.033125065,-0.07337769,-0.053700246,0.04294738,-0.026844349,-0.012839956,-0.08793136,-0.04433552,-0.006228237,-0.058427107,-0.04954624,-0.01639216,-0.048134007,-0.048762135,-0.08524537,-0.068092145,-0.027506687,0.042790305,-0.013906279,0.05561701,-0.016662173,-0.0818291,0.043271784,-0.042845376,0.010902803,0.036466327,-0.040814236,-0.00501004,0.05320556,-0.025540203,-0.01280558,-0.011589034,-0.02913005,-0.029752739,-0.05107558,-0.011224879,-0.084747545,-0.020801354,-0.023112094,-0.013053713,-0.0054841978,-0.026397973,-0.050557215,-0.0025780124,0.052045934,-0.061546132,0.00031524853,0.043459382,0.013779069,0.009561516,0.07587739,0.009535667,-0.06919733,0.027152084,-0.007183346,0.019998543,0.03668123,-0.014570453,0.038459733,-0.06528539,-0.013971808,0.022801615,-0.0066558975,-0.06556584,-0.051714074,-0.032906566,0.022096058,0.029254403,0.036563206,-0.051868297,0.00880522,0.023014806,-0.078291334,-0.042670544,-0.05936126,-0.09767051,-0.07415276,-0.008579329,-0.054971468,-0.04741795,0.0162101,-0.05928852,-0.0017241754,-0.032389674,-0.0034562368,0.053372856,-0.06397281,0.08097922,0.006985999,-0.06779169,-0.048041,0.0036656673,-0.09375212,-0.08039544,-0.06868178,-0.03974587,0.038525604,0.03622075,-0.07151596,0.0021724952,0.025973164,0.06110619,-0.035726476,-0.043379065,-0.08886809,0.03577046,-0.09806114,-0.020977497,-0.09235143,0.033233948,-0.061131723,0.0138342865,-0.08088272,-0.004447665,0.0062127123,-0.05148839,0.049920913,-0.054977737,0.035986103,-0.006162523,-0.008025164,-0.0025148585,-0.028340397,0.025693042,0.058770042,-0.053491857,0.04892972,-0.037047572,0.0029805186,0.001115736,-0.025551653,0.053338725,-0.039411966,-0.013868915,-0.0255241,-0.043093745,-0.012639554,-0.02744,0.004700681,-0.0497003,-0.039561555,-0.04454204,-0.0693789,-0.06777417,-0.015409238,0.045951743,-0.055475533,-0.08466031,-0.041581143,-0.03642383,0.014844743,0.044741634,-0.005912624,-0.021451069,0.049589224,-0.073928885,-0.02777655,0.055407573,0.017733866,-0.013409499,-0.1042837,0.016134167,-0.021112984,-0.031765174,-0.033722993,-0.1074077,-0.034848075,0.02430978,0.010831105,0.03988418,0.014890639,-0.08296231,-0.08727786,0.033216503,-0.027915902,0.009668365,-0.025550539,-0.07489,-0.00563979,0.052852765,0.07053894,-0.04561711,0.009581187,-0.011218443,-0.0029098457,0.044533238,-0.0125724375,0.04223987,-0.047525425,-0.04968703,-0.07338796,0.030189909,-0.00017880955,0.035105485,-0.08113287,-0.0102579715,-0.08863678,0.05339574,0.09586032,0.05522074,-0.088828325,0.029840238,0.04100963,0.026790999,-0.027314043,-0.043287,-0.017093884,0.044103358,0.003454796,0.029185945,-0.005437152,0.0979805,-0.020597748,0.044507395,-0.03456293,-0.00022617477,-0.0024488585,-0.004963221,-0.024768662,-0.075187854,-0.09883992,0.005966128,-0.0527548,-0.098345935,-0.053272806,0.03120661,-0.04240686,-0.052876655,0.034929737,-0.06175518,-0.067502275,0.029058004,0.009765724,-0.034370936,0.038412597,-0.056375716,0.032244686,-0.03939796,-0.094842345,0.015795248,-0.041467223,-0.09629674,0.069721684,-0.077302426,-0.016642911,-0.032071758,-0.054491054,-0.07476993,-0.021560423,0.008436527,-0.014103913,0.0461525,0.018031294,0.042435493,-0.026644284,0.029320741,-0.034784477,-0.12809269,-0.048256584,0.0120572,0.031597864,-0.01895322,-0.0845799,-0.053716727,0.05016131,-0.08454751,-0.029981168,-0.051111337,0.044890318,0.05616153,-0.08348992,-0.02391857,0.00064640184,0.04689824,-0.039739884,-0.09763351,-0.041658107,-0.06376773,-0.035403855,0.003733183,-0.05474118,-0.04439594,-0.08416671,-0.01130242,-0.062169172,-0.02169524,0.04983345,0.006952172,-0.068276435,-0.03626348,-0.08567973,0.017588818,-0.046850722,-0.05252816,-0.056045055,0.0060885977,0.049730375,0.03657015,0.034506556,-0.0054696277,manual_forklift_yellow
0.010913166,-0.055990312,-0.0127576785,0.0034519339,-0.044435527,-0.040540177,-0.05324632,-0.12015274,0.02599827,0.055038493,0.0175069,-0.024060864,-0.011367447,-0.046515286,-0.022353234,0.04285479,-0.048543748,0.028385472,-0.0009059757,-0.01956826,-0.014198884,-0.023940891,-0.07564426,-0.063366175,0.07441425,-0.012841425,-0.0016494541,-0.10039229,0.032242168,-0.037054397,-0.053171556,0.026615905,0.03517602,-0.059334945,0.013285578,-0.0068116286,-0.103245564,-0.017906649,-0.013041443,-0.11234613,0.050623957,0.0338745,-0.009868204,0.029504376,-0.058785293,0.01051855,-0.053544413,-0.015181743,-0.040671445,0.020716941,0.02883243,0.033340555,-0.0457948,0.044435915,-0.009785624,-0.049049318,0.013633216,-0.07201005,-0.009841623,0.0960461,-0.044069592,-0.054028947,-0.13456345,0.08795008,-0.03596272,-0.051225957,0.03291348,-0.0472878,-0.073805295,0.045022905,0.07010218,0.0053596976,-0.039115336,0.019529026,0.03179612,-0.058417004,0.035269592,-0.007741099,0.03878638,-0.023070907,0.005346355,-0.063732356,-0.029220112,-0.026199458,-0.02324097,-0.05236716,-0.050520156,0.012843512,-0.04767149,-0.10577504,0.061306432,-0.028694017,-0.041636515,-0.033940084,-0.013656878,0.0057842047,-0.06445845,-0.095598474,-0.052227043,-0.049429473,-0.0047179693,-0.0030431852,0.009814065,-0.13446452,0.010470185,-0.01973769,-0.085760996,-0.003206242,-0.075365655,-0.006803297,0.07243865,0.007329162,-0.0070576807,0.029997183,0.061716337,-0.010408494,-0.10673054,0.038024534,0.052609492,0.052369732,-0.116493635,-0.025712978,0.06702551,0.043284457,-0.018410435,0.00011769681,0.046592116,-0.08149286,0.020844763,-0.008581888,0.02599114,0.041672353,-0.03440218,-0.07452417,-0.032732427,-0.002901259,0.003788256,-0.04618675,-0.05192487,-0.028435452,-0.0025412412,-0.009312759,-0.077000625,0.04944772,0.053787038,0.03287464,-0.046739,0.09800295,-0.03965458,0.03688103,0.057449754,0.0055298554,-0.015145085,-0.051012147,-0.08238108,0.06278235,-0.039038792,-0.04823073,-0.051293008,0.0220425,0.027886009,-0.04227501,-0.009014617,0.06931459,0.012766974,0.025165496,0.0049885768,0.077632464,-0.08778782,-0.054734595,0.030008268,0.023799561,0.0056702057,-0.047961056,0.012605613,0.012229863,-0.14339866,-0.06304376,0.06605358,0.0067827245,-0.06338347,-0.11588437,-0.103746355,-0.03759699,-0.02743172,-0.0056277574,-0.0035721974,0.05107793,-0.017318016,-0.0039840047,0.0328503,-0.0165493,0.06751723,-0.05214922,-0.056017354,-0.04640452,0.024998529,0.009449068,-0.018642187,-0.06804324,-0.010226193,-0.020271087,-0.005826736,-0.068517685,-0.06296717,-0.024243478,-0.039316315,-0.021553371,-0.06573535,0.028831396,-0.005498895,-0.06058554,-0.005943763,0.051446702,-0.076513834,-0.03182033,-0.05394351,-0.034921087,0.011451963,0.012754473,0.0255217,-0.12502484,-0.050419144,-0.0768025,-0.028046736,-0.014283508,-0.028728835,-0.023443265,0.037041254,0.02294378,-0.044583265,-0.016110152,-0.016599772,-0.11433679,0.018932376,-0.072984524,0.07672988,-0.07670513,-0.03865045,-0.05347971,0.030817427,-0.040179264,-0.08398181,-0.060103014,0.042414166,-0.07093738,-0.049965102,0.028763082,0.0055977628,-0.047582977,-0.043402378,-0.07371789,-0.035096683,-0.028957654,-0.049902506,-0.023804504,-0.012283219,0.04936556,0.06228524,-0.0149413375,-0.059477445,0.059480853,-0.07128421,-0.06747903,-0.06309894,0.00090265105,0.025075374,-0.034763027,-0.021950645,0.009685672,0.05143418,-0.017825473,0.0051390897,-0.0286658,0.024793405,-0.10535818,-0.010539178,0.049836308,0.06406106,-0.048062958,-0.12867339,-0.0029098955,-0.041655544,-0.09119314,0.014747802,0.020318367,-0.118699096,-0.007558079,0.0702191,-0.054411724,-0.091496624,0.005693824,0.04565307,-0.08606786,-0.013530199,-0.0917867,-0.026195087,-0.071502306,-0.022728898,0.018655531,-0.04561184,-0.071623,-0.0272363,-0.101228714,-0.03823766,-0.045565516,0.0023363458,-0.014622912,-0.13846242,-0.038029887,0.0043842676,-0.11497283,0.03888078,0.004092409,0.029607832,0.05845786,-0.083643205,-0.017026866,-0.015877321,0.03275703,-0.039880496,-0.00045554113,-0.037540272,-0.04973038,-0.08124116,0.041336767,0.0016750152,-0.025764072,-0.08435497,0.011236652,0.00064501894,0.006106634,-0.01197151,-0.12745291,-0.019711457,0.0010287799,-0.15270141,-0.0033233098,0.01577237,0.05337377,0.0074663586,0.040203344,0.04271338,0.06439677,-0.058949172,-0.02491319,0.0022768758,-0.05809382,0.004229478,0.06473621,0.02484672,-0.053564724,-0.0031809502,-0.056141086,-0.034910206,-0.010767692,-0.00731268,-0.05345168,-0.117626905,-0.050678648,-0.0015658817,-0.01271984,-0.014843138,0.048335794,-0.059043497,-0.03102578,0.07070833,-0.008485067,-0.013375985,0.04370882,-0.002848658,-0.055138387,-0.054837152,-0.11083927,-0.002900035,0.081537396,-0.03784755,-0.058041267,0.032995965,-0.08299885,-0.0008902666,-0.011468148,-0.051999636,-0.06884386,-0.04650164,0.06376909,0.0255604,0.03682333,0.0023947589,-0.041422162,0.0013308653,-0.012128931,-0.07767053,-0.039161604,0.05412201,-0.072170675,0.062675774,0.03355025,-0.009392786,0.017346093,-0.10043511,-0.07250308,-0.0741312,-0.06961353,-0.0045323246,0.04004849,-0.043971192,0.07921041,-0.029533902,0.036887906,0.06131062,-0.005788022,-0.017659534,-0.044419,0.044107106,-0.020410698,0.009450131,0.0569303,-0.04279083,0.016877616,-0.07133982,-0.023307584,-0.047995165,-0.103881046,-0.06342232,-0.045801736,0.013409633,-0.029307816,0.056140307,-0.071723916,-0.087951265,-0.062453244,-0.017450199,0.048331168,-0.026981637,-0.04821383,0.008916951,-0.04700444,0.027735613,-0.06707686,-0.034075554,-0.0920144,-0.05245155,-0.005263583,0.059758767,0.0012972577,0.0041640652,0.04435425,0.008965352,0.103980765,-0.012165699,-0.047253214,-0.012419115,0.01656676,-0.009813964,-0.056066774,-0.09259114,0.045176607,0.05078005,-0.036456138,0.012878313,0.05437793,-0.043320455,-0.030370831,-0.04176436,0.034881882,-0.1410325,-0.022777004,-0.095393494,-0.015678542,-0.057709645,-0.042241443,-0.043393426,-0.08013392,-0.061004873,-0.017000033,-0.030647807,-0.05798817,-0.03419454,0.05080916,-0.021381967,0.0002081774,0.018882187,0.07267779,-0.048247647,0.016984498,-0.041394133,-0.0016317391,-0.021752914,0.051223073,0.0036825486,0.03605368,-0.021583783,-0.021479454,-0.07967021,-0.1080314,0.037394717,-0.08015723,-0.06641659,-0.08977125,0.007726254,0.04830073,-0.06881211,-0.037788887,0.01583372,0.004607558,0.049799304,0.012747116,0.04479562,0.017793294,-0.06630643,-0.0021143644,-0.036871396,-0.08768664,-0.05891931,-0.0048427256,0.016000304,0.020387912,0.047714595,-0.006888748,-0.022562671,-0.042205874,-0.0032972745,-0.004541341,-0.069628,-0.048993953,0.02229638,-0.017260663,0.028041419,-0.03194858,-0.07384048,0.018554708,-0.084615126,0.05291447,-0.02572643,0.006200744,0.052247684,0.0071752793,0.097053014,0.012427279,-0.103446476,0.038006414,-0.04473923,0.038357817,-0.08355104,-0.07078008,-0.018263232,0.023460332,0.013382175,-0.033230867,0.021446146,-0.086984016,-0.10299125,-0.09221469,0.010916729,-0.012968141,-0.040130172,-0.005208779,-0.0056234314,-0.055457905,-0.04125565,-0.06439918,-0.035792712,-0.106706105,-0.07623573,0.015853144,-0.11141598,0.021019625,-0.046779875,-0.075299285,-0.089524575,0.028827768,-0.0358495,0.010395916,-0.1490429,-0.107671574,0.05303254,0.056612182,-0.0684081,-0.010478661,-0.044482462,-0.07548302,-0.0011329517,0.01376521,0.07176143,-0.028239245,0.07390919,-0.04729061,-0.0667608,0.08235219,0.07496953,0.076143526,0.052617986,-0.042462084,0.013925403,-0.0047279764,0.0071275923,-0.062469054,0.010040844,0.0023281118,-0.08050294,-0.06151968,0.008844047,0.014450178,-0.09640956,0.010641592,-0.056782965,-0.041953858,-0.03123172,0.05474694,0.04037162,0.012466127,-0.06332352,-0.0016029208,-0.0077378224,-0.004706224,-0.00045065721,-0.043146234,0.04002872,-0.0065901247,-0.0060271677,-0.0007081989,-0.12550905,0.0046730493,-0.0032191614,-0.025736388,0.011294415,-0.04339889,0.06294343,-0.046667952,-0.022251975,0.029232718,0.058075752,0.03120749,-0.041933198,0.011858631,0.03897034,0.02170135,-0.0614369,-0.0061000553,0.06488002,-0.0027899866,-0.08446516,0.0010431404,-0.038818948,0.077846356,-0.0051141237,-0.0200778,0.036865085,-0.036485065,-0.06712565,-0.0666303,0.02092775,-0.045802608,0.0067098257,-0.038111005,0.028900312,0.016297134,-0.06102105,0.038360257,0.0019627204,0.03074329,-0.091854304,0.03754697,-0.028982285,-0.024744276,0.0049209553,-0.024971444,0.0012209289,-0.009676114,-0.07077484,-0.01685562,-0.056747016,-0.03594407,0.019443382,0.043929614,0.014144712,0.0022306049,0.0315242,0.0714633,0.012304515,0.02632228,0.026325941,-0.12251807,0.0683798,-0.056108035,0.017293546,-0.09560253,-0.03659038,-0.029753247,0.0102628935,-0.026373602,-0.00950331,0.06602521,-0.09778076,0.062322017,0.059135012,0.0042695696,-0.05005997,-0.02005096,0.017436076,-0.02435168,0.019737331,0.05158366,-0.04889393,0.038305946,-0.029960033,-0.037593525,-0.06063605,-0.03039011,-0.033127338,-0.04977193,-0.046169467,-0.0811809,-0.0026922221,0.062248107,0.08232516,0.008745205,-0.06297583,-0.0988777,0.019097436,-0.05871733,-0.009499927,0.046184037,0.006790144,-0.027407203,-0.016426554,-0.008081122,-0.041058045,0.03182099,-0.0036184553,0.033390563,-0.11589767,0.045414235,0.025560342,-0.027375283,-0.120473295,0.010071047,0.0015155869,-0.008298673,-0.09902969,-0.06723477,0.025988001,0.0013231478,-0.06301768,-0.10723376,-0.0020838147,0.029444626,-0.13116053,-0.025196377,0.0958042,-0.05274379,-0.0149858715,-0.055135854,-0.034061305,-0.08022821,-0.058983162,-0.017982513,-0.1272966,-0.018656358,-0.022185596,0.00944286,-0.028550135,0.039789096,-0.039537817,-0.024983333,0.048230782,-0.034655485,-0.043898325,-0.036823656,0.048858058,-0.0661114,0.034457598,-0.009535311,-0.020729646,-0.01071212,-0.11814087,-0.011364735,-0.051264234,0.01022611,-0.026784368,-0.092502594,-0.009977275,0.013212436,-0.03680233,0.00041200535,-0.10818487,-0.024903517,0.039233755,-0.042222522,-0.03491942,-0.011599446,-0.02130579,-0.03440571,-0.018249892,-0.034325656,-0.054400545,-0.021473473,0.015244309,0.010259647,0.02457267,-0.04515566,-0.06482816,-0.08234043,-0.03227241,-0.05571969,-0.0057820054,-0.018521942,-0.05692048,0.056344636,0.043570578,-0.0021131043,-0.08345174,-0.013794956,-0.030824836,-0.009832117,-0.027618516,0.023700202,-0.08194745,-0.056672003,-0.0013987169,-0.097214445,-0.08072548,0.027730051,0.04390856,-0.046038315,0.023710841,-0.077653065,-0.04016336,-0.07312874,0.08376307,-0.07323524,0.07718514,-0.009510847,-0.09903146,0.0032689096,-0.10704505,-0.029815378,0.06958789,-0.06890861,0.015081234,-0.069007374,-0.034662426,0.006106913,-0.046649043,-0.023015097,-0.07720771,-0.033069253,0.014944278,-0.006022303,-0.01084116,-0.053864982,-0.039864786,0.011181862,-0.030779045,-0.023888594,-0.010495335,0.044805784,0.04506754,-0.08561077,0.039229628,0.010058518,0.05065747,0.045416843,-0.044311937,-0.006963907,-0.021720301,-0.04360585,0.030048596,0.042695932,0.045435227,0.02975941,-0.08128545,-0.09878806,0.05820884,-0.008110222,-0.025199316,-0.076333016,0.031284798,-0.06439367,-0.016077051,-0.11320007,-0.042039353,-0.07882915,-0.06872411,-0.04428704,-0.078968614,-0.05394387,-0.05761741,0.07749398,0.017230775,0.048144948,-0.08298876,-0.06707332,0.07846335,-0.04865744,0.05720528,-0.0782918,-0.048885133,-0.036780234,-0.010649568,-0.02911752,-0.025963234,-0.058173757,-0.04336012,-0.04100395,0.03278745,-0.0012673965,-0.05494232,-0.09620374,-0.012326033,0.01833952,-0.04613623,0.009244634,-0.028161865,-0.0075839567,-0.033624038,-0.050295737,-0.07419899,-0.007874897,-0.036256623,-0.019328563,-0.07013384,-0.030805465,-0.03157176,0.063196465,-0.12422423,-0.024095189,-0.0197943,0.08419178,0.06225075,-0.032097016,-0.038646888,-0.025891101,0.025159832,-0.03639929,0.019138055,-0.014927095,0.04818829,0.017260151,-0.0057193744,0.051563017,-0.017961161,0.029779788,-0.082652636,0.055943422,-0.0580738,0.014968923,-0.063894674,-0.06559739,-0.079036415,0.0050528934,0.005592675,0.0018341135,-0.033916645,-0.012670242,-0.03488231,-0.005076041,-0.020292282,0.045830846,-0.020154491,-0.08851137,-0.049091462,-0.0255854,0.013647392,-0.04869587,0.004652503,-0.079825625,-0.0011395128,-0.07485466,-0.03356098,0.019156875,-0.061004855,-0.07308267,0.014970661,-0.06389487,-0.007058461,0.018455565,-0.016656056,-0.008544258,-0.015474362,-0.103213005,-0.03148819,-0.032661956,-0.042386446,-0.047682177,-0.041920535,-0.0074728625,0.041737087,-0.06324133,0.02785193,0.052990034,-0.0024152219,0.032352872,0.027696116,0.020592649,0.05238943,0.030454667,-0.024822334,0.0012620685,0.023257649,-0.08901906,0.060944572,0.019901033,-0.069829136,-0.006933354,-0.017910827,0.06300769,-0.0050898795,-0.024498127,-0.012493415,0.013460521,0.013765038,-0.057216614,0.012651501,-0.09105896,0.02848802,-0.07335339,-0.04167376,-0.03154014,0.001019707,-0.0037437386,-0.0042037284,-0.001471901,0.04087317,-0.025079781,-0.0040527126,-0.031384055,-0.009842897,-0.057575595,-0.020123195,-0.053366225,-0.05338564,0.04950234,0.004091721,0.026846347,-0.055920694,0.038235206,-0.012695218,-0.013868071,-0.024461765,0.044644408,-0.0028907722,0.025541557,-0.020529775,-0.07329852,0.03056062,-0.06848536,-0.018416502,-0.003798538,0.008612831,-0.07488358,-0.027073974,-0.0010501891,-0.010702989,-0.016522983,-0.013880241,-0.00030032787,-0.039786655,-0.080374256,0.021627672,-0.058234744,-0.02548498,-0.0049960893,0.015140077,-0.06275104,-0.052447144,-0.05238091,-0.019237502,0.014936347,-0.02550544,-0.026807023,-0.0049978998,0.051623173,-0.019119311,-0.020554561,-0.054894935,0.03459132,-0.06434353,0.031302303,0.041809976,0.04885995,0.007905341,0.0040181796,0.0015859286,0.047175795,-0.03182012,-0.02764186,0.037213296,-0.03371223,0.014818714,-0.05623904,-0.034120128,0.03136275,0.010497708,-0.077539586,0.03658798,8.454698e-05,-0.03590514,0.0042857523,-0.020204699,-0.053194385,-0.049113967,0.012438847,-0.008167615,0.019563317,-0.054033212,-0.08016822,0.015499993,-0.028090723,-0.04278085,0.027457029,-0.013326092,-0.0795314,-0.016042573,-0.116734624,0.015611682,-0.042616326,-0.0565846,0.028064195,-0.04868924,-0.058132965,-0.02431174,-0.0626465,-0.09612298,-0.03994905,-0.095753446,0.05036585,0.052998435,-0.019366866,0.0067965332,-0.05251641,0.043551944,-0.07539866,0.0118131675,-0.040926594,-0.038084395,-0.0020867432,-0.03841687,-0.0447768,0.02452018,-0.069681816,-0.07541344,0.066266604,0.034578532,-0.0070000878,-0.0031614741,-0.0014583349,0.057369612,0.032035377,-0.017882662,0.0066137966,-0.014999422,0.00366107,-0.07686634,-0.0145382555,0.056473445,-0.013437945,-0.06578009,-0.10241591,-0.023780836,-0.025647825,0.030131366,-0.03706012,0.06094547,0.008861569,-0.11795576,0.0022219333,-0.039602168,0.0664485,-0.04613012,-0.03334428,-0.07839018,0.01865819,0.015562082,-0.053415067,-0.0927724,0.06863128,-0.046688274,-0.082307786,-0.048275705,-0.055958357,0.03857045,0.048013065,0.019640874,0.020640926,0.005379768,-0.04001403,-0.02627925,0.055331945,-0.062473565,-0.100879304,-0.04050076,-0.04923552,0.013942047,0.01847239,-0.08270848,-0.094673924,-0.07732642,-0.02317554,0.001868279,-0.08921116,-0.02400176,-0.041424174,-0.021383038,-0.01389662,-0.010982217,0.049897633,-0.07348173,-0.09889146,-0.020651983,0.007979055,0.037404332,0.07598847,0.009860164,0.032714445,0.013100672,0.04860952,-0.11783393,-0.064159,0.020571165,-0.05260415,-0.072734416,-0.015247228,-0.029415702,0.0030415626,-0.045968074,-0.069807,-0.080926895,0.056035373,0.02631143,0.047820438,0.06701558,-0.12925354,-0.023298921,-0.04445598,0.020354843,0.006138496,0.014315677,-0.027046902,0.008026206,-0.08045273,-0.13453275,0.0689471,-0.042162925,-0.049428225,-0.02825143,-0.062204115,0.002661298,0.0067829564,-0.021615162,-0.04894776,0.0281826,0.053697623,-0.0347518,-0.0011466066,-0.11002621,-0.09076875,-0.016426302,-0.04251925,0.048787627,-0.02173147,-0.04602481,-0.00022529902,0.010648886,0.014341709,-0.047890097,-0.10094255,0.019907732,-0.08708553,-0.001432471,-0.04922029,-0.061577123,0.014443177,-0.0065944707,-0.0049838964,-0.092616625,-0.016832044,-0.09398304,0.037037607,manual_forklift_orange
-0.04625589,-0.07949946,-0.1154255,-0.058285482,-0.0563301,0.02937649,0.03070647,0.019167978,-0.06517563,-0.09191669,-0.011611151,0.065803766,0.03740005,-0.12635991,-0.08077294,0.00032333302,0.00030422927,0.01876006,0.0012282952,-0.03864109,-0.014385696,-0.054233067,0.030577969,-0.007519871,0.035252966,-0.03318722,-0.086405724,0.044316173,-0.0051390515,-0.00021507508,-0.05820482,0.0566968,-0.0916193,0.0056879735,0.04285133,0.024467923,0.04930878,0.046008267,-0.025275383,-0.07975096,0.030221825,-0.09709078,0.025954021,0.02141082,-0.029734677,-0.032091256,-0.07610691,-0.03027953,-0.057903472,-0.0046531437,-0.015872682,-0.054032974,0.009838692,-0.05066926,0.0062297443,-0.053879406,-0.021411786,-0.012168504,-0.040804308,-0.0033085225,0.03250351,6.3363725e-05,-0.04956285,-0.018147556,-0.012785247,0.02499578,-0.051311195,-0.031908475,-0.062142875,0.057146743,0.05371153,0.05356738,0.035829004,-0.039267916,-0.07614739,-0.031002471,0.03445567,-0.082366504,0.024168368,-0.0053359466,-0.07278024,-0.12970863,-0.018910974,-0.011738816,-0.04150338,0.054409962,0.017970735,-0.054490518,0.030020578,-0.0046134004,0.04200572,-0.077715956,0.00041877932,-0.041198164,0.0011008813,-2.6621734e-05,-0.055311434,0.03581852,-0.037539452,0.030254273,-0.018557413,0.062268224,-0.039631847,-0.09091473,-0.05981082,0.030823845,0.057135623,0.044722933,0.032263007,0.03634134,0.0036218509,0.0081566265,0.008411547,-0.026831884,-0.05659308,0.03697917,-0.072577514,-0.054942396,-0.063953504,0.07189107,0.0057255393,-0.08391459,0.039421428,0.035748687,0.02209948,-0.04917502,0.065893896,-0.03247197,-0.012829495,0.017788338,-0.004238642,0.03546676,0.030947242,0.016688975,-0.016290486,-0.0029377975,0.016842702,0.019715777,0.041867424,0.0048077297,-0.09333981,-0.024775535,-0.03178956,-0.012325962,-0.042949956,-0.056881063,0.052239757,-0.070491366,0.08442805,-0.001840105,-0.023792649,-0.028379353,-0.038467668,0.05735962,0.01827765,-0.091068864,-0.013317369,0.010310771,0.06268813,0.057435963,-0.030911686,0.0741344,0.046890557,0.04135262,-0.032559354,-0.05740714,0.021587532,-0.007227801,0.0022788655,-0.033936158,-0.083943464,-0.052158013,0.037698008,-0.017242003,0.03566873,0.08652458,0.012144729,-0.002297812,-0.051480837,0.044718847,0.048636798,0.052934702,-0.041389868,-0.06610783,-0.04359717,-0.05571648,0.022545073,0.020206857,0.038619164,-0.03754895,-0.039693553,0.014341541,-0.045101814,-0.046706907,0.013493001,-0.06448298,0.06867576,-0.049240682,-0.055553883,-0.074610375,-0.066441655,-0.06423009,0.05698626,-0.043524075,0.05863712,-0.05710562,-0.04430734,-0.054637447,0.005506012,-0.064940415,0.05904933,-0.04880305,-0.051668555,0.044803243,0.05652332,0.004123744,-0.007885132,0.06434575,-0.01490261,-0.05502723,0.037374794,-0.07783132,-0.0361909,0.06439009,0.008784513,-0.052491877,-0.06342184,-0.03114283,-0.010788492,-0.035542626,-0.04631189,-0.016749546,-0.036103852,0.036247082,0.011537869,-0.052854184,-0.06969491,-0.006859474,-0.05432219,0.059792586,0.01544489,0.038363785,-0.05764977,0.01343597,-0.08710663,-0.06976027,-0.03357988,-0.06623379,-0.05982265,-0.08197916,0.03536635,0.0129607245,-0.04356131,0.0015973067,0.037621405,0.06134782,0.034959726,0.02034578,-0.03870437,-0.01582312,0.0376515,-0.014056756,0.0048804255,-0.06717994,-0.017738558,-0.05973587,-0.013495567,-0.056081988,-0.004607617,0.037461374,-0.10822883,-0.061074466,-0.059400972,-0.035320796,0.012066132,-0.06424201,0.018826697,-0.010791473,0.038615085,-0.058477752,0.03688404,0.028824316,-0.037340026,0.03661501,0.029055875,-0.013259722,-0.016723877,-0.02056719,-0.041568346,-0.039246373,-0.072914235,0.02968755,-0.00043807656,0.032102183,-0.06642099,0.010327117,0.05947645,-0.0734007,-0.06853844,0.016318297,-0.02223385,-0.040096115,-0.0568943,0.06324255,0.03915695,-0.0134230675,0.034692183,0.049312554,0.072379336,-0.019509308,-0.017028583,0.040417805,-0.035024043,-0.078017585,-0.018249162,-0.02130485,0.029682232,0.02351972,-0.023929141,-0.012506699,-0.02621506,0.014153607,0.03215109,0.003190404,-0.040954158,0.048080128,0.0011831465,0.022764325,-0.007226139,0.010445809,-0.04050934,-0.05804296,0.043886483,0.018317845,-0.04926003,-0.0038833972,0.026826719,-0.05307582,-4.1169522e-05,-0.01904443,-0.04666952,0.05299953,0.03930628,-0.000748181,-0.018262036,-0.006611923,-0.12515816,-0.089667484,-0.046110645,-0.08832807,0.010367687,-0.07739162,-0.053856295,0.03197955,-0.09363864,-0.043953095,-0.07696038,-0.058554947,-0.03814281,0.07979289,-0.02880024,-0.06479033,0.09542747,-0.08519999,0.017481958,-0.010962387,-0.0902638,0.0054638926,-0.015378073,-0.017714608,-0.02043551,0.020941125,-0.017943114,-0.10548398,0.07018085,-0.07346336,0.009613541,-0.093436114,0.009436198,-0.07045367,-0.048670333,-0.014633699,0.0047161933,0.008824473,0.020911414,0.027625836,0.024598124,0.040251497,0.00032880213,-0.051436376,-0.026913628,-0.021710608,-0.06196071,0.072253555,-0.031351924,0.07737811,-0.07656248,0.017080333,0.026619669,-0.018842228,-0.03200908,-0.09307377,-0.053862743,0.046303045,-0.028517324,-0.065164566,-0.041104294,-0.035503406,0.05043025,0.041220892,0.0402842,-0.008218469,0.03676044,0.08990321,-0.03392307,0.016206715,0.03937792,-0.02954024,-0.0060077608,-0.0036637196,0.007032769,-0.07815186,-1.6728754e-05,0.004766011,0.052325506,0.046821926,-0.09654162,0.018440604,-0.016828673,0.010671584,-0.07036372,0.008169317,0.038589522,-0.060529042,-0.022171423,-0.077416345,-0.0030032848,-0.0164951,-0.021393346,0.021860555,-0.02255406,0.022118447,-0.049524043,0.025579555,0.05885044,-0.071047984,0.025497302,-0.10540096,0.04874656,-0.059397858,-0.02339161,-0.062263675,-0.07639496,0.03825834,0.027610024,-7.85945e-05,-0.042212483,0.047248505,-0.0747775,-0.028678307,0.038582344,-0.018947806,0.020139884,-0.09135007,0.014970413,-0.072148226,-0.029329667,-0.056691248,-0.00870407,-0.07262678,-0.10796295,-0.0766431,-0.008729756,-0.044637103,-0.09130388,-0.08423156,0.03401074,0.011770287,-0.0594404,-0.006065794,-0.08122598,-0.1344687,0.002909648,0.08395258,-0.030283865,-0.049230415,-0.037942797,0.011720946,0.026801638,-0.01989727,-0.014532014,0.04432873,-0.05953703,-0.0792064,0.03624359,0.020872403,-0.047897816,-0.0028745478,-0.06335843,-0.036219392,-0.015548733,0.000812891,-0.09025419,-0.0387882,-0.004685522,-0.021256808,-0.054135542,-0.020586321,0.037296522,-0.027471114,-0.01599816,-0.068704255,-0.04051146,-0.012628822,-0.036980856,0.06780124,0.008878047,-0.028544046,-0.0054064407,0.013544897,-0.05701055,-0.092291504,0.0025978961,-0.080029555,-0.02044517,0.019153576,-0.014673142,0.06265764,0.043532606,-0.024416273,-0.0129741505,0.017746478,0.008543985,-0.04918148,-0.06125719,-0.058662716,-0.0045937663,-0.002223107,-0.025387682,-0.029699586,0.058192343,0.010897123,-0.04333223,-0.019474218,-0.08186962,-0.053476192,0.0011901938,-0.028362207,0.018693505,0.005363646,-0.014755621,0.038879737,-0.062318478,-0.011000975,-0.0014096011,-0.008784093,-0.05921203,-0.08241513,-0.014399865,-0.045786392,-0.032107152,-0.08691133,-0.03858187,-0.051397435,-0.02930802,0.048860256,-0.021137329,-0.04117694,-0.07414374,-0.025957681,0.061591756,-0.014379124,-0.013722467,-0.05761419,-0.069850385,0.013931791,0.043323122,-0.0077848164,0.02500316,0.044163674,-0.07949812,-0.02567057,0.044487566,0.067868546,-0.034514647,-0.019057794,-0.027800905,-0.027851561,-0.022936363,-0.040017847,0.023623213,0.060950544,-0.1095281,-0.007292763,-0.048265632,0.0050327387,-0.0047058193,-0.027315779,-0.08201758,-0.063571595,0.011002473,0.021023504,0.060544953,-0.055123877,-0.043329783,-0.047207598,-0.039376076,-0.08091063,-0.06232751,-0.03801868,-0.11359941,-0.054128267,-0.08805648,0.017286861,-0.05247747,0.037562814,0.065530695,0.003926136,0.039979376,-0.0044822935,-0.03257216,-0.0020245886,0.0030627362,-0.103886075,-0.0146767115,-0.079580545,-0.045056637,-0.017797846,-0.044103205,-0.03930098,0.06769341,0.00871904,-0.11507463,-0.042541087,-0.024945037,-0.07294836,-0.045080405,0.030118681,-0.015437052,0.014385831,-0.03537202,-0.0035897992,-0.062868774,-0.0093667405,0.018915856,0.034752946,-0.032180075,0.074574575,-0.009024845,-0.09608308,-0.061271213,-0.046950422,-0.04214917,-0.033804648,-0.008118809,0.0067778104,0.027106654,0.017752498,0.09294281,-0.016321873,-0.0034318902,-0.0048100236,-0.06271272,-0.11285728,-0.09901581,0.0091117155,-0.1009387,-0.07577783,0.012023487,0.020527136,-0.057738017,0.04617157,-0.080089405,-0.08561332,-0.039156057,-0.019706363,0.027900603,0.003966531,0.06561946,-0.057476334,0.06659354,0.03463738,0.0023060925,-0.018974751,0.030710433,-0.039708402,0.0015596044,-0.05008879,-0.09122697,-0.036969844,-0.0015773386,-0.026147895,-0.06780888,-0.0059846886,-0.01231194,-0.023128806,-0.017673425,-0.067465864,-0.015515392,0.0031067217,-0.0851856,-0.039035514,0.0153106935,-0.01577048,-0.053614333,-0.03581899,-0.008326788,0.019024186,0.0044166395,-0.02764769,0.00779851,-0.047686286,0.054954756,0.06475498,0.045048486,-0.090225115,-0.0005164006,0.027649848,-0.087240376,0.0488857,-0.029594958,0.046705656,-0.041359965,-0.0619083,-0.0859187,-0.029462539,0.031962965,-0.01939196,0.04707772,0.017701164,-0.0001370433,-0.10267656,-0.0313173,-0.032602444,-0.06270499,-0.021065468,0.02910753,-0.07604701,-0.06048594,0.049551938,0.061411016,0.0044823447,0.007911534,-0.023677759,0.02734776,0.03241893,0.01894487,0.065438546,-0.05482609,-0.038601186,-0.077064246,-0.016666485,0.040859092,-0.05206403,-0.084032975,-0.043780755,0.009218653,0.047345188,-0.0077747856,-0.084323294,-0.0014024159,0.08732688,-0.0766293,0.05069663,-0.06536119,0.02761886,0.00044499026,-0.025094131,0.0046980754,0.0077539734,-0.013617423,0.005206606,-0.030302744,-0.034770586,-0.00868869,-0.0574113,-0.025818462,0.05213563,-0.0078113666,-0.089976594,0.03231908,0.022585839,-0.09068503,-0.11035234,-0.06873788,-0.0070926826,-0.088901035,0.04248874,-0.012754378,0.07492141,-0.05187618,-0.0012642886,0.05299945,0.03255918,-0.062559895,-0.022333585,-0.0046299384,0.03848125,-0.06895799,-0.0070488555,-0.052750517,-0.013288155,-0.005698725,-0.018242238,0.045273975,0.00034883022,-0.041246235,0.042712264,-0.022005461,-0.06032948,0.012155902,0.0010715355,-0.040109176,-0.051161528,0.058906667,0.0062167323,-0.033299904,-0.010288024,-0.047831528,-0.09590854,0.01294251,0.01742497,-0.047941696,0.028711338,-0.064805076,0.030800723,-0.05786842,-0.037580047,-0.030868307,0.04989795,-0.024834638,0.032884188,-0.026818039,0.031877536,-0.0036564874,-0.09837249,0.023744507,0.05718272,-0.02723869,-0.059369773,0.071986966,0.015195855,0.050819878,-0.044161912,0.009789393,-0.06458823,0.07544424,-0.096072435,-0.075773835,0.01620049,-0.0859099,-0.08331266,-0.0057347575,0.045578994,0.008415079,0.003216759,0.034615636,-0.10688394,-0.009575019,-0.007384909,-0.020948827,-0.0017239209,-0.03499249,0.03415124,-0.015977481,0.0028060467,-0.024899952,-0.050823726,-0.004137154,-0.009073932,-0.05619005,0.055402428,-0.03305751,-0.012901737,0.034326326,0.059114926,-0.015582738,0.035434823,0.02806868,0.009351505,0.04300007,-0.0046275863,-0.0502735,-0.065380864,0.028908143,0.058615636,-0.05026678,-0.030565612,-0.030605959,0.06225903,-0.0074844356,0.0022066159,0.040635657,0.009828545,-0.03749935,0.009557383,-0.019490797,0.0090173045,0.022732083,-0.014780328,0.02411865,-0.1132912,0.033981383,-0.042889394,-0.0930914,0.026868377,0.040154967,-0.062404033,-0.04955813,-0.029121459,-0.009228051,-0.012055206,-0.07945563,0.03801391,-0.05267942,-0.033576112,-0.034977384,-0.033394337,-0.050904505,0.0201331,-0.035291675,-0.013509206,0.044674575,-0.0054528303,-0.07810637,-0.0725333,0.0063568978,0.021209707,-0.021873046,0.0062416834,0.033529505,0.045650553,0.0015613438,-0.001509044,-0.016277768,0.034225192,0.020615513,0.020040754,0.071112074,-0.03493943,0.02427903,-0.079136126,-0.033334214,-0.07556464,0.004489494,-0.031575594,-0.022282064,-0.0054675816,-0.014554185,0.03177085,0.009056923,0.040050536,-0.018537182,-0.070406586,0.012309358,0.0252298,0.07213401,-0.04200898,-0.07011197,0.029158786,0.012558278,-0.016772008,-0.0073663695,-0.04095277,0.025980748,-0.08553912,0.016075782,-0.015164411,0.043447826,0.03630348,0.011662047,0.034899708,0.014313858,-0.0663444,0.050466537,-0.03918792,0.048710432,0.02322691,-0.001748852,-0.086016215,-0.027428163,0.03440005,0.03622139,-0.008883227,-0.043649323,0.011329606,0.05733521,-0.07567531,0.08439302,0.021191891,0.018922694,-0.016919436,-0.05181042,-0.045494642,0.032023713,-0.035441875,0.054530405,0.072172105,-0.028902115,-0.055111274,-0.06458054,-0.0057640434,-0.02089414,-0.014203267,0.0319325,0.016886003,0.03845501,-0.02622608,-0.028069105,0.047609407,-0.049833883,-0.07172625,-0.046198223,-0.09650326,-0.075383484,-0.059142355,0.025625208,-0.05531918,-0.013821659,0.07339221,-0.09235647,0.035259716,-0.08615847,-0.03542814,0.015647888,0.05157106,0.021815179,-0.020309215,0.040913902,-0.063483395,-0.03714508,-0.046523046,-0.032733724,0.02204674,0.008838654,0.04778431,0.03243993,-0.040658988,-0.110131405,0.027839446,0.049489018,-0.007924927,0.05274941,0.03444519,-0.026179327,0.029234942,0.030841522,-0.04039839,-0.026393335,0.07994161,-0.013500799,0.062300168,-0.047177974,-0.039997224,0.020502638,-0.03577689,-0.046432223,0.041049644,-0.021827947,0.036105365,0.011006525,0.04275604,-0.10589295,-0.02281018,-0.013064344,0.024390062,-0.018550597,-0.008624494,0.08096235,0.07552233,-0.074022055,0.06161174,-0.017157666,-0.0013011821,-0.049323056,-0.010225131,-0.062364165,-0.053721685,-0.02752926,-3.575207e-05,0.064437196,-0.053668533,-0.015656581,-0.0853053,0.021337083,-0.08703782,-0.0068207355,-0.0047795037,0.036186226,0.030670384,0.038836308,-0.019802773,0.05581864,0.037153285,-0.08450212,0.086944446,0.024453063,-0.06107384,0.017325163,-0.004960669,-0.04567125,0.016168002,0.020298734,0.037220303,-0.06592403,0.005434747,-0.023346703,-0.035592172,-0.08336863,-0.09706494,-0.042663857,-0.05407939,0.037172943,-0.088087454,-0.06693189,0.031438723,0.040033694,0.041496143,-0.10583561,0.03536298,0.02431754,-0.02627803,-0.029619258,0.047871828,0.0022528472,0.0069986656,0.033858884,0.021666965,-0.09869069,-0.045347687,-0.052600138,0.031041544,-0.07317037,-0.06839807,-0.028033536,0.0059857545,-0.03923694,-0.058108527,0.027351009,0.028855277,-0.057156783,-0.009316985,-0.10027966,0.076294735,-0.0042585637,-0.01598723,-0.01527062,-0.061816614,-0.0349446,-0.043475356,0.04589185,-0.056773882,0.00092494953,0.027540503,0.019169465,0.04758846,-0.02872722,0.055182993,-0.014704126,-0.002683893,0.0043527577,-0.053206548,0.01086618,0.021791818,0.02427725,-0.07982769,0.020114327,-0.02648195,0.05249694,0.038602516,-0.0041161356,-0.0655762,0.020935284,0.03817943,-0.004418753,0.0054192655,0.0080174245,-0.050353024,0.05074614,-0.021276888,-0.055459965,-0.032445665,0.053152137,0.07090749,-0.04926896,-0.041520298,-0.00984846,-0.057803553,-0.058928117,-0.015950497,0.06162447,0.0100624,-0.06314892,-0.043792028,0.023413362,-0.046660595,0.02282855,-0.08936581,-0.007308431,0.025136987,-0.017618503,-0.01176474,0.001778298,0.057796378,0.015396582,-0.04059485,0.0015645709,-0.09197213,-0.046710525,0.00042002587,-0.003201756,-0.008284259,-0.04800319,0.02259016,0.053514205,-0.0296597,-0.07354657,0.010456603,-0.15136491,0.020736828,-0.04249215,0.04443105,-0.007389807,-0.009032931,0.057352554,-0.070235334,-0.107248664,-0.060148865,-0.012131157,-0.067166165,-0.06911972,-0.044370957,-0.078472,-0.04059032,-0.03696146,-0.05615127,-0.06127821,-0.08863446,-0.0166373,0.023223532,-0.017481009,-0.02693696,0.033946894,-0.021222506,0.009231259,0.027022457,-0.019317485,-0.018947711,0.01680543,-0.04592292,0.033751704,-0.059168108,-0.021872839,0.034062628,-0.030662607,-0.052643426,0.03320938,0.04868833,-0.06033651,-0.01560414,-0.098031424,0.022256708,-0.06908888,-0.037773293,-0.06329646,0.019327814,-0.023248982,0.022363264,-0.05902786,-0.058304317,0.05044477,-0.10218798,-0.0010672276,0.027879192,0.063069426,0.0036052088,-0.0791435,0.037227586,-0.009683233,-0.009734064,petrol_lawn_mower
-0.07594696,-0.07322886,0.03825282,-0.008263759,0.026110617,0.052868787,-0.0028026162,-0.056733713,0.018785924,0.056318652,0.009877896,-0.014774093,-0.050397303,-0.031505913,-0.06498858,-0.061099842,-0.077038325,-0.040893603,0.029212214,-0.04547405,-0.08456487,0.059304852,-0.075777784,-0.07456067,-0.044240072,0.05389927,-0.0071418886,-0.071678884,-0.012678583,-0.03913299,-0.025607668,-0.026478598,0.03242658,0.08334355,-0.06931456,0.004992707,-0.024792371,-0.015522187,-0.13856572,-0.014492151,-0.0076081106,-0.098090634,-0.047954552,-0.0003642773,0.031285763,-0.022309514,-0.04972484,-0.07346738,0.035183884,-0.021584813,-0.09577482,-0.052326135,0.084941775,-0.028489288,-0.06385666,-0.01914208,-0.043184776,-0.019652413,-0.0024957098,0.036660574,0.047697682,-0.041520085,0.0054376475,-0.016309539,0.022506269,0.012825268,-0.011454124,0.01749118,0.048420306,0.024520103,-0.050527547,0.068536654,0.019859971,-0.020793293,0.018025097,0.04726777,0.051253226,0.004131824,0.042683955,0.022463376,0.013804807,0.020618094,-0.061097506,0.034383494,0.01601685,-0.0018993911,-0.042926047,0.032455157,0.0715583,0.07869548,-0.002636637,-0.020847373,0.0214697,0.07321627,-0.033858437,-0.014108053,-0.031640563,-0.016131718,-0.013840564,0.04874284,0.07314334,0.050495915,-0.065877765,-0.10171413,-0.0061706924,0.07222831,0.047706883,0.009435436,-0.034477558,-0.020331653,-0.026291545,-0.08718104,0.045973003,-0.111359134,-0.0037126655,-0.027044885,-0.04606133,0.041189678,-0.025668122,-0.10340956,0.0076838387,0.04458381,0.0064517627,-0.056926843,0.058699686,-0.018581895,0.041062597,0.018512363,0.028244449,-0.015266811,-0.048696324,-0.02483908,-0.064002275,-0.030481655,-0.013509528,-0.022515777,0.011442721,0.007000259,-0.012474072,-0.075207606,-0.008487714,-0.015587892,0.03313109,-0.036096342,-0.048915446,0.03063111,-0.050550476,-0.04395259,-0.006029306,0.0372425,-0.12977424,-0.008175011,-0.033126693,-0.030553507,0.018092662,-0.059785448,-0.014310794,-0.021349443,0.030957686,0.038205706,-0.11948922,-0.035337586,-0.069432184,-0.058038298,-0.0010996683,0.004480891,-0.018225249,-0.0589141,-0.06873401,-0.003986799,-0.03400196,-0.092154875,-0.091594644,-0.09316531,-0.02807734,6.417302e-06,0.03127635,-0.028780915,0.04829167,0.009277726,-0.06109205,0.023458926,-0.036992304,-0.011769408,-0.00010337889,-0.065595515,-0.053474158,-0.09543697,-6.307164e-05,-0.016040161,0.021341644,-0.051191393,-0.0027078446,0.020495448,-0.106672175,0.040866014,-0.08045085,0.051776677,0.02957697,-0.0031977282,0.053476524,0.017204836,-0.1004842,-0.04353331,-0.03887871,-0.040855054,-0.028967546,0.012907656,0.022499254,0.027643459,0.039400607,-0.019978995,0.0392363,-0.047045335,-0.007435996,-0.040441725,-0.01433501,0.030079266,-0.08879175,0.0077536046,-0.08911162,-0.0057317177,-0.009243638,0.06954547,0.015182522,-0.019289043,-0.041683275,-0.04189892,0.014406802,-0.013039788,-0.034252133,-0.051344533,-0.011558448,0.0064106495,-0.007463746,-0.001530551,-0.14121017,-0.060357645,-0.051722016,-0.055382505,-0.01818024,0.018638184,0.052596483,0.0134657975,0.022142366,0.013046947,0.037213594,-0.03562383,-0.053607352,-0.002253771,0.000170931,0.035737645,-0.036528677,-0.043009248,0.06455666,-0.09673989,-0.047789004,-0.048935365,-0.026614543,-0.018699745,0.056591548,-0.031224271,0.032007057,-0.083442695,-0.037595987,-0.042454522,0.049201645,0.033371653,-0.08283411,-0.07133972,0.0058164364,0.051645987,-0.07665815,0.029562311,-0.0065389597,0.013596936,-0.03168667,-0.08091753,-0.021393947,0.047684647,-0.07126968,-0.057234153,-0.06649836,-0.043337133,0.005274479,0.009308138,0.0012026591,0.039477732,0.027143128,-0.012753405,0.00702608,-0.050632153,-0.019506719,0.027746687,-0.03312963,0.043399338,-0.0002765701,-0.05247029,-0.03038995,-0.05020754,-0.043461185,-0.050467484,-0.08582956,0.022717165,-0.1079726,-0.03828517,-0.00062402885,0.018731028,0.03694938,0.075633794,0.012377465,-0.046554312,0.037723593,0.06672338,-0.031407066,-0.09472101,0.018408481,-0.023788475,-0.020630214,-0.062488697,-0.076453,0.005261691,-0.096961595,-0.09851323,-0.043000247,0.032184657,-0.046240013,-0.03406017,0.0149287,-0.0035168652,-0.036235712,-0.058625426,-0.06039275,-0.0835502,0.013988193,-0.005148713,-0.018120876,0.051536407,0.05913854,-0.0073820776,0.02605853,-0.01756203,-0.073165715,0.066347696,-0.030925838,-0.048654653,-0.07879576,-0.013491997,-0.047672935,-0.022880554,0.0011743396,-0.02276006,0.01584459,-0.0059028417,-0.06869831,0.0052503143,-0.0051732166,-0.05898925,-0.07876048,0.01987508,-0.050837703,-0.03947914,0.07897644,0.05146997,0.03380922,-0.11027348,-0.059107874,-0.048509765,-0.018052159,0.0177281,0.008639214,0.035727657,-0.09021806,0.06441241,-0.032103024,0.009415374,-0.047183283,-0.008127304,-0.051294032,0.08318936,0.029797217,-0.08907903,-0.014009483,0.002639471,-0.058983285,-0.09767,0.05567588,0.037905287,0.012912922,0.0506011,-0.0012637407,0.022250926,0.01665008,-0.05297221,-0.020273417,-0.01830408,-0.031535905,-0.031580806,0.029272996,0.019674594,-0.019793509,0.0077524176,0.011328727,-0.0012482117,0.045742158,0.04887038,-0.049488503,-0.004553914,-0.042579096,-0.013573559,0.009405911,0.0011126123,0.028533967,-0.013450881,-0.0136976475,0.012557898,-0.048872583,-0.108688265,-0.039793074,-0.086163275,0.0869881,-0.06291435,-0.024639782,-0.03300507,0.050852045,-0.057314783,-0.007707958,-0.019981638,0.022876093,0.012046755,-0.11166801,0.031027868,-0.029745167,-0.10179619,0.007376731,-0.062235415,-0.05803876,0.038581997,0.011571274,-0.041747484,0.009916292,0.028540475,0.010791124,-0.04087318,-0.005050422,0.022181546,0.00076515577,-0.031626686,-0.0049313824,-0.09033423,0.008182587,0.06640204,-0.017426707,0.053519603,-0.09806967,-0.05112595,0.041615244,-0.023835825,-0.03268569,0.05294873,-0.089111626,-0.06059271,-0.054613817,-0.064754695,0.016485618,0.00956357,-0.011062961,-0.04045975,0.026419297,-0.04917872,0.025503794,0.041922163,-0.08333145,-0.017893098,-0.032660287,-0.111615,-0.034873802,0.015635708,0.039151493,-0.03221308,-0.01503478,-0.011467462,0.025161907,-0.0413774,-0.020854138,0.0356598,-0.06427687,-0.10978471,-0.05183936,-0.056565195,-0.0042243954,-0.08245649,0.05370498,-0.07714356,0.0001244087,0.07980935,-0.1072558,0.021917693,-0.011751461,-0.039147876,0.06715879,0.03787196,-0.05344566,-0.026711892,-0.12539265,-0.0024948942,0.01154828,-0.068189085,-0.019221928,-0.09506447,0.04640318,-0.036164742,0.03056866,0.037304103,0.0047903415,-0.02728313,-0.039186247,0.04546973,-0.04901831,-0.008086788,0.028987508,0.039498687,-0.066160925,-0.0891576,-0.10822964,-0.03276692,0.0072748056,-0.058882155,0.018377101,0.06026783,-0.035607964,-0.010035276,0.021731548,-0.01330758,-0.010570754,-0.024228515,-0.025770813,0.017275913,-0.07695191,-0.08553711,0.057684798,-0.008946154,-0.019966139,-0.016379893,0.063883066,0.031421673,-0.004245057,0.0066384277,-0.008787536,-0.08609989,0.01011053,0.018017605,0.03241134,-0.034518868,-0.03811476,-0.09315525,0.03633927,0.018906675,0.059099846,0.019103047,-7.4549225e-06,0.041184094,-0.06993065,0.023353497,-0.102456115,0.047060065,0.008431903,0.009812272,-0.0823843,-0.014571085,0.029374296,-0.075424135,0.07482331,-0.041168485,0.020111714,-0.01822637,-0.043842554,-0.020217739,-0.04093821,-0.03877518,-0.1258942,-0.024102861,-0.06896753,-0.0775526,-0.030327251,0.071431115,-0.07946929,0.0174018,-0.011733506,-0.07353639,-0.036931116,0.013444744,-0.07580567,0.0071495706,0.04112091,0.0068403687,0.06441897,-0.06843459,-0.061677814,-0.041202534,-0.06621677,0.008582432,0.018170888,-0.047490608,-0.07503492,-0.01934827,0.021664206,0.044686824,-0.009684663,-0.018751875,0.06766532,-0.061180055,0.048445396,-0.053212717,-0.03650782,-0.06886734,0.043991245,-0.01777378,-0.026198383,-0.051468857,0.02633751,0.010743556,-0.008640754,-0.061702143,0.00036896582,-0.007328393,0.0364151,0.05451956,-0.053785678,0.02876837,0.058945358,0.049332503,-0.0050552366,0.034872852,0.007109797,-0.0012415446,-0.0053277607,0.007069344,-0.0039448473,-0.0832736,0.005236488,-0.065972716,-0.027386852,-0.10745154,0.05675158,0.027554795,0.024234897,0.07068743,-0.011328398,0.045732193,0.06785353,-0.013520356,-0.008606011,0.020157553,-0.06772509,0.043417294,-0.0102802245,-0.020416915,-0.04084736,-0.042646408,0.030458834,-0.024325676,-0.051374927,-0.012302653,0.059073724,-0.022217121,0.0022290547,0.0048848544,-0.035162147,-0.022467347,-0.031123625,0.027634583,-0.026807679,-0.03127083,0.036093086,-0.041511796,-0.0030330536,0.02991147,0.027701747,-0.046976045,-0.05850313,-0.06421939,-0.0055963085,-0.06761558,-0.04028232,-0.039505515,0.009448795,-0.06682996,-0.1100964,-0.11930078,-0.047203884,-0.092991196,-0.020487586,-0.00238036,-0.042106126,-0.040244598,0.031378176,0.057910662,-0.110330194,0.034113944,-0.05832943,-0.0061963927,0.044953503,-0.101981424,0.053974573,-0.054743294,-0.02385755,0.012270238,0.047256503,-0.01402006,-0.038210526,-0.031479646,0.025752997,0.030018067,0.028530298,-0.039733957,-0.03189859,0.0003253982,0.0069065653,0.025361694,0.0620627,-0.036994137,-0.002813367,-0.058105562,0.026752844,-0.08212634,-0.004506608,0.017283218,0.019808315,-0.00056657975,-0.0039259065,0.003991169,-0.039598748,-0.029153664,-0.05913604,-0.0008853516,-0.015310999,-0.060186137,0.028190449,0.0015352146,-0.060463812,-0.035839196,-0.1089046,-0.006623801,-0.03502214,0.018661557,0.077754445,0.049484193,0.018270267,0.07918685,0.01494952,-0.008020927,0.004053877,0.0072950334,-0.0837052,0.018486768,-0.0024617119,-0.0133237,-0.042883907,-0.07047723,0.0013927976,-0.015987286,0.033334166,-0.05309542,0.069333896,-0.05309233,-0.034847874,-0.061472762,-0.068512455,-0.07056036,0.040185254,-0.06378279,-0.0071774893,-0.051493254,-0.01038657,0.0050748955,0.011506912,-0.0022589911,-0.08958996,-0.03068205,-0.021251224,-0.07531731,-0.04233931,0.011925547,-0.037088927,-0.111795194,-0.052717257,-0.051116224,0.031162083,-0.055351634,-0.07039446,-0.020924361,0.093538165,-0.020061959,0.044159696,-0.08477919,-0.06128917,-0.0200984,-0.0977698,-0.068971805,-0.041252345,-0.07947815,-0.01961572,-0.087194175,-0.014329368,0.014203674,-0.013160616,-0.001929301,0.03106951,0.010586063,-0.037134517,0.04368295,0.02789362,-0.110423364,0.00050406525,-0.010883961,-0.097415246,0.03604263,-0.007933463,-0.049474765,0.004165106,-0.07604248,0.01985395,-0.013251064,-0.040715065,-0.024479285,0.010179995,-0.08138891,-0.03158752,-0.05069953,0.044774115,-0.052762,-0.028939743,-0.04795366,-0.0457881,0.02457164,-0.046673834,-0.04872776,-0.06853529,0.06903424,-0.025680905,-0.07224108,-0.025384124,0.030034956,-0.040022325,0.012370364,0.031440627,-0.07827936,0.073073715,0.03287752,-0.03901793,-0.116766594,0.0011485551,-0.01915618,0.02907437,0.019448746,-0.0019089129,-0.04401958,0.0023311987,-0.020709336,-0.117724515,0.015551742,-0.10180906,-0.037412815,-0.06513114,-0.07734544,-0.03143058,0.008952433,-0.07231594,-0.06449138,0.013792249,0.057727594,-0.10620738,0.0723975,0.05573416,-0.013616692,0.022251468,0.044062946,0.055282656,-0.063572444,-0.07407189,0.012403083,0.0023848535,0.012307882,-0.10483583,-0.03341263,0.0025041664,0.033464406,0.012414956,-0.06256727,-0.015061415,0.014976113,0.0051209326,0.025058035,-0.037970193,-0.0956236,0.05396434,-0.025603147,-0.00614879,-0.051973924,-0.014649667,0.010764498,0.008086226,-0.060654633,-0.03376561,0.006093719,-0.0376507,-0.027202113,0.024657387,-0.0021691136,-0.04251583,0.056842893,-0.032149103,-0.058933735,0.008866132,-0.021950189,-0.011260822,-0.05801527,-0.00285055,0.041507628,-0.043164585,0.044631917,-0.032183144,-0.043414857,-0.006019823,-0.0632431,0.020532422,0.054164443,-0.10322532,-0.07396735,0.070515856,-0.039710212,0.016042022,0.032481745,-0.026354419,-0.05259039,-0.08791469,0.04770973,-0.042025287,0.0043732957,-0.047701947,-0.07257122,0.0022751035,-0.09863589,0.07609838,-0.032969378,-0.06036783,0.053373765,-0.023209354,0.0026811743,0.02835702,-0.046373185,-0.09671429,-0.015462854,-0.00532433,0.045204733,-0.031244414,0.0064987307,0.041925836,-0.0034081445,0.014754727,0.015331217,-0.022373814,-0.042584755,0.021674894,-0.026958777,-0.0295968,0.040091142,-0.019348016,0.022452017,0.0020845253,-0.034877818,0.0009307973,0.063475624,-0.03831819,-0.0607276,-0.021332322,0.004333452,0.016572751,-0.008679351,-0.04828137,0.020671526,-0.00552157,-0.011327875,-0.0225177,0.08504762,0.0161838,-0.06574336,0.0916027,0.0045871334,-0.037872422,-0.052386276,0.025438463,-0.08722771,-0.06622546,-0.105962366,0.043005038,0.008660084,-0.07287319,-0.012763509,-0.019177571,-0.007208329,-0.06437801,0.07693861,0.031458378,0.055612084,0.033907983,0.057434376,0.044158537,0.07199961,-0.06644735,-0.06628236,-0.040821377,-0.050726734,-0.01347737,0.03243016,-0.011516561,-0.04503545,0.04896465,-0.01536366,-0.011028525,-0.020549404,0.007807495,-0.017890055,-0.07131495,-0.06598696,0.036151912,0.0062895208,-0.05462463,0.02653192,-0.017097076,-0.036262684,-0.08989883,0.054937538,-0.051922,-0.0047059623,-0.10469375,0.05445542,-0.087918706,0.00061983394,-0.017678272,0.042572457,0.0049335184,-0.028045673,-0.06420932,-0.013780632,-0.076476425,-0.016344698,-0.03262849,0.023540245,0.01591479,-0.007509084,0.01514055,0.0128664635,0.020105602,-0.02550484,-0.0021913243,0.012126225,-0.006103444,-0.07254712,-0.06572025,-0.0032874546,-0.05277295,0.016870776,-0.09999841,0.017042333,0.025902562,0.01077005,-0.0038667263,0.0848635,-0.022647819,-0.063746855,0.027752385,0.044402827,-0.044447076,0.0010968426,-0.11769194,0.04176631,-0.024650998,0.029354881,0.007918566,-0.023772035,-0.029421072,0.00631818,0.02194429,-0.03600086,-0.033907313,-0.032063592,0.046453692,-0.10052989,-0.0710157,-0.017594973,-0.0065464545,0.021158475,-0.0290386,0.015577111,0.04054988,-0.006201275,-0.07599368,-0.051994585,-0.045087665,-0.066833355,-0.05839069,-0.043292027,0.061145976,-0.026726548,-0.102771826,-0.0072424794,-0.016210908,-0.000977197,0.06916387,-0.051920395,-0.11366602,0.03677685,-0.03581743,0.03789944,0.0033425265,0.06274649,-0.06303108,0.036606476,0.011924281,-0.0584266,0.032042358,0.05663786,0.07088965,-0.057828393,0.005451566,-0.051479835,-0.09727034,-0.084674075,0.030971216,-0.073347256,-0.062005248,-0.03978543,0.009274141,-0.0065081674,0.01658363,-0.10320542,-0.029361483,-0.02959137,-0.015789598,-0.009979793,0.0058180667,-0.0032231018,0.01615915,0.0023679896,-0.010104595,-0.0011142219,-0.04868657,-0.035197724,0.01756912,-0.04209915,-0.06713757,-0.04990992,0.03792548,-0.064835794,0.02340166,-0.020169795,0.019421207,-0.038316265,0.017927999,-0.058608353,0.028890569,0.024195027,-0.028166918,-0.019840166,-0.036724877,-0.059113376,-0.038794164,-0.014429944,0.027951784,-0.0441934,0.011292139,-0.0602737,-0.028922288,0.022769112,-0.061521184,0.0049131718,-0.11875805,-0.07654938,-0.11661354,-0.069055945,-0.019009883,-0.019028144,0.011859709,-0.040501006,-0.10921783,0.018085977,0.07051466,-0.023174182,-0.0013291539,0.049096406,-0.06546239,-0.11591868,-0.012984647,-0.07357836,0.017611416,0.05250109,0.052333027,-0.080887355,-0.028976165,-0.05995951,0.05617721,-0.017734474,-0.0554937,0.009794872,-0.008253488,0.028200716,-0.02474761,0.030781772,0.04024673,0.026854511,0.010886037,0.0021988945,0.0038880983,0.04827267,-0.059498254,-0.0128599545,-0.058876388,0.038381234,0.024098527,-0.009987254,-0.04422126,-0.045186732,0.027276019,0.063080534,-0.008053476,-0.024818901,0.0037833995,-0.0112346085,-0.088079445,0.009949458,0.015686736,-0.052544992,0.0028347946,0.060011603,0.017220298,0.0027916583,-0.09140724,0.04155187,0.06046884,0.033414464,-0.008283129,-0.017527841,0.011399455,0.031680293,-0.078655206,-0.092956185,-0.018234037,-0.008016916,0.047905248,-0.031799134,-0.036565676,-0.010671141,-0.09611098,0.042348225,-0.0114553645,-0.024159038,-0.08201944,-0.025783682,0.025992593,0.040207155,0.033231054,0.012331646,-0.022577263,-0.008836355,0.029966984,-0.0478686,0.053024445,-0.031761624,0.0067643872,0.033932317,-0.034446586,-0.016520372,-0.028442062,-0.092966504,0.005546324,0.022181,0.03145286,-0.07784693,electric_mower
